{"SEQL.0.weight": [[0.1847877949476242, -0.2130701094865799, -1.1513328552246094, -0.43730628490448], [-0.8292300701141357, 0.09752799570560455, 2.708030939102173, 1.1232998371124268], [-0.5138335824012756, 0.639822244644165, 2.7843902111053467, 1.2516673803329468], [0.4332728683948517, -0.8703193068504333, -3.023385524749756, -1.3985751867294312], [-0.5818990468978882, 0.4216880798339844, 3.1498587131500244, 0.9513222575187683], [-0.8577336072921753, 0.6144662499427795, 2.3567655086517334, 1.2487878799438477], [1.270431399345398, -0.40166720747947693, -3.2663209438323975, -1.067135214805603], [-0.4999144673347473, 0.7727652788162231, 1.1219730377197266, -0.4762318730354309], [1.3337010145187378, 0.17299415171146393, -3.031315326690674, -1.549023985862732], [0.31584349274635315, -0.47524452209472656, -1.0111610889434814, -0.5340184569358826], [0.3259482681751251, -0.19987517595291138, -0.7121865153312683, 0.04197685420513153], [-0.11889679729938507, -0.19596561789512634, 0.5549540519714355, 0.4292364716529846], [-0.9322509765625, 0.04535975679755211, 2.5936119556427, 0.8106116056442261], [-0.03908919170498848, 0.19522754848003387, 0.3027496933937073, 0.22725778818130493], [-0.09326981753110886, 0.04057517275214195, 0.7594683170318604, 0.6714551448822021], [1.0021439790725708, 0.2736384868621826, -2.703239679336548, -0.6972054243087769], [1.056873083114624, 0.14172090590000153, -3.2451207637786865, -0.7642408609390259], [-0.02025536634027958, -0.4360460042953491, -1.0572680234909058, -0.8311414122581482], [-0.18879282474517822, 1.028286099433899, 2.9260849952697754, 1.2906771898269653], [0.09858632832765579, 0.7029032707214355, 3.207608938217163, 1.1795158386230469], [0.07684735953807831, 0.948157548904419, 3.098383665084839, 1.1810553073883057], [-0.8139880895614624, 1.023642897605896, 4.33930778503418, 2.1000521183013916], [0.13838350772857666, -0.22451801598072052, -0.027443761005997658, 0.017180459573864937], [-0.3618481159210205, 0.4441888630390167, 0.329508513212204, -0.3175605535507202], [0.32735681533813477, -0.07271075248718262, -0.6149305701255798, -0.5048779249191284], [-0.8946183323860168, 0.6341747641563416, 2.063110828399658, 1.0126146078109741], [-0.6296663880348206, 0.21294353902339935, 1.271925926208496, 0.6481903195381165], [0.13724900782108307, -0.6264340877532959, -3.5200955867767334, -1.45028817653656], [0.33856630325317383, -0.8472973108291626, -1.313942790031433, 0.07794647663831711], [-0.13783150911331177, -0.11435846984386444, -0.9340404868125916, -0.46685728430747986], [-0.18974637985229492, 0.22095972299575806, 0.4759683907032013, 0.5733261108398438], [-0.02727685496211052, -0.07160487771034241, -0.03627362474799156, 0.4286424219608307], [-1.0678035020828247, 0.271476686000824, 3.027651309967041, 0.842187225818634], [-0.17511598765850067, -0.22201187908649445, -0.6868160963058472, -0.7012832164764404], [-0.12905040383338928, 0.6852298378944397, 2.407588005065918, 1.176692008972168], [0.059589188545942307, -0.2952011823654175, -0.795314610004425, -0.592805027961731], [-0.1318494826555252, 0.07850416749715805, 0.22230376303195953, -0.02581975981593132], [0.39961233735084534, -0.17590659856796265, -3.547696113586426, -1.2381542921066284], [-1.123402714729309, 0.0390479676425457, 3.2440693378448486, 1.064838171005249], [-0.10676596313714981, 0.6151082515716553, 1.1255697011947632, -0.21505895256996155], [-0.3835432231426239, -0.37197884917259216, 0.48583000898361206, 0.03325362130999565], [0.21351587772369385, 0.7164262533187866, 2.6030380725860596, 1.1562886238098145], [0.05748249217867851, -0.4405767321586609, -3.6369941234588623, -1.6338673830032349], [-0.2227800190448761, 0.010515895672142506, -0.8011878728866577, -0.3794722855091095], [0.6742634177207947, 0.27070680260658264, 2.3889496326446533, 0.6569258570671082], [0.05987771227955818, 0.8257980346679688, 2.4435296058654785, 1.2112189531326294], [-0.9611571431159973, 0.20585837960243225, 2.7611324787139893, 1.4507979154586792], [-0.25876566767692566, 0.12943673133850098, 0.18897853791713715, 0.30676981806755066], [0.9688894748687744, 0.04201562702655792, -3.254594326019287, -1.4208179712295532], [-0.7194303870201111, 0.42781680822372437, 0.386274516582489, 0.7504603266716003], [-0.7057967185974121, 1.1171314716339111, 1.640283226966858, -0.41339609026908875], [-0.5114716291427612, 0.7845046520233154, 2.7432336807250977, 1.3404476642608643], [0.012121783569455147, -0.27365201711654663, 0.9991709589958191, 0.4509989619255066], [-0.5410150289535522, 0.29111024737358093, 3.300851345062256, 1.196097731590271], [-0.35817840695381165, 0.8280584216117859, 3.102315902709961, 1.3968983888626099], [-0.538182258605957, 1.0722566843032837, 1.4980040788650513, -0.24115996062755585], [0.06728243082761765, -0.6745900511741638, -4.439248085021973, -1.6020275354385376], [-0.4020237326622009, 0.4290808141231537, 0.10671724379062653, -0.2363777607679367], [-1.5025542974472046, 0.4585738182067871, 5.6525654792785645, 3.7461910247802734], [0.10672321170568466, 0.6848334074020386, 3.3111612796783447, 1.0570365190505981], [0.595669686794281, -0.7118875980377197, -0.7548597455024719, 0.40711352229118347], [-0.06994500756263733, 0.85215163230896, 3.035923719406128, 0.9917470216751099], [-0.6879101991653442, 0.15087640285491943, 0.462494432926178, 0.40182018280029297], [-1.3295286893844604, 0.22612684965133667, 2.4207348823547363, 0.8888463973999023], [-0.29222092032432556, 0.26775604486465454, 0.05901531130075455, 0.565750002861023], [0.15730020403862, -0.1196165606379509, 0.24068519473075867, -0.2809197008609772], [0.4635390639305115, -0.46693429350852966, -0.8129258751869202, -0.8609034419059753], [1.073896050453186, -0.3249657452106476, -5.8745503425598145, -3.4216089248657227], [0.28594258427619934, -0.7162362337112427, -2.8044087886810303, -1.266422152519226], [-0.48341768980026245, 0.3296372592449188, 0.9750639200210571, 0.11297054588794708], [0.08015377074480057, -0.038814231753349304, 0.4516605734825134, 0.4930972754955292], [-1.4051361083984375, -0.018081245943903923, 2.432631731033325, 0.7195749282836914], [-0.5617591142654419, 0.3152908384799957, 1.2367024421691895, 0.8257808685302734], [0.2275639772415161, -0.47772857546806335, 0.18034794926643372, -0.3679197132587433], [-0.2787206768989563, 0.31693047285079956, -0.13133841753005981, 0.1647009253501892], [0.14521163702011108, 0.2701546549797058, -0.11372588574886322, -0.7013044357299805], [0.5702675580978394, -1.1260566711425781, -1.8694654703140259, 0.3828055262565613], [-0.9684730768203735, 0.07232273370027542, 2.457554817199707, 0.9380911588668823], [-0.28364020586013794, -0.40604525804519653, -0.5248430967330933, -0.6235501170158386], [-0.3364463150501251, 0.1920197308063507, -0.21005629003047943, 0.1266593486070633], [-0.7491744160652161, 0.6004201769828796, 0.85410076379776, -0.30378708243370056], [0.04925653338432312, 1.0238096714019775, 3.0865468978881836, 1.3236459493637085], [-0.5919100046157837, 0.21753740310668945, 0.877738356590271, 0.6669099926948547], [-0.21419307589530945, 0.43890076875686646, 1.2005507946014404, -0.11030508577823639], [0.10529664903879166, -0.3856479227542877, -0.2278955727815628, -0.28181591629981995], [0.20662181079387665, -0.1354808658361435, -0.6230159401893616, -0.43580886721611023], [-0.1437215954065323, 0.9784611463546753, 2.968946933746338, 1.245327115058899], [0.48764944076538086, 0.4757052958011627, 0.29513201117515564, -0.19322651624679565], [-0.9943332076072693, 0.7047253847122192, 2.602581262588501, 1.297976016998291], [0.013063114136457443, 0.2911728024482727, 2.955000877380371, 0.9474597573280334], [0.09694242477416992, 0.08499801158905029, -0.047214608639478683, 0.5052093863487244], [-0.2794041633605957, -0.3817628026008606, -1.968377709388733, -1.0062732696533203], [-0.41389185190200806, 0.03134593367576599, 1.370916724205017, 0.5713459253311157], [1.0157524347305298, -0.6851634383201599, -4.355806827545166, -1.9753680229187012], [-0.3704598546028137, 0.38908690214157104, 0.4507772624492645, 0.5307042598724365], [0.3503721356391907, -0.20559793710708618, 0.3500036597251892, 0.5395615100860596], [-0.1640309989452362, 0.30939462780952454, -0.3405199348926544, 0.09587184339761734], [0.1327863335609436, -0.5197817087173462, -3.1465675830841064, -1.1096845865249634], [-0.4837038218975067, 1.0732895135879517, 1.2289432287216187, -0.2587262690067291], [-0.486037939786911, -0.31497159600257874, 0.5436526536941528, 0.24304668605327606], [0.17274542152881622, -0.8523434400558472, -1.2015862464904785, 0.09696432948112488], [0.22030481696128845, -0.13835950195789337, -0.20104897022247314, 0.019132396206259727], [0.9740896821022034, -0.1018054410815239, -2.5753772258758545, -0.9884766936302185], [0.5833035707473755, 0.2492050975561142, 2.3157429695129395, 0.5196167230606079], [-0.4976866841316223, 0.11913727968931198, 3.4204344749450684, 1.2027069330215454], [0.07782827317714691, -0.5152419209480286, 0.5140645503997803, -0.2097802758216858], [1.1946841478347778, -0.32294565439224243, -2.9301939010620117, -1.1270036697387695], [-0.331644207239151, 0.09648565948009491, 1.4432177543640137, 0.583566427230835], [0.05659914016723633, -0.12619352340698242, 0.19377589225769043, -0.09770625829696655], [-0.5473018288612366, 0.07044380158185959, -0.29424580931663513, 0.027109598740935326], [-0.884412407875061, 0.0762261152267456, 2.3715243339538574, 1.1063790321350098], [0.6022746562957764, -1.1859767436981201, -1.3682163953781128, 0.18322283029556274], [-0.49451425671577454, 0.32953429222106934, 1.7651021480560303, 0.7552872896194458], [-0.0290653258562088, 0.6327419877052307, 3.2477974891662598, 0.8986782431602478], [-0.1523701548576355, 0.823758602142334, 0.9282054901123047, 0.031960997730493546], [0.92731112241745, -0.5396361947059631, -2.937436103820801, -1.2957355976104736], [0.3318302631378174, -0.8673758506774902, -3.352966547012329, -1.2928415536880493], [0.3277210295200348, -0.23496341705322266, -1.1852284669876099, -0.773171067237854], [-0.7679616212844849, 0.37353813648223877, 3.18030047416687, 0.9096406102180481], [-0.27073657512664795, -0.18083637952804565, -0.009684846736490726, 0.2466398924589157], [0.899989128112793, -0.12815633416175842, -3.621541738510132, -1.2401944398880005], [-0.7330846786499023, 0.4605795443058014, 1.1686406135559082, 0.5191158652305603], [0.24499964714050293, 0.632030189037323, 3.3880832195281982, 1.2379707098007202], [-0.07369737327098846, 0.32995596528053284, 0.2058909684419632, 0.6294218301773071], [-0.19449250400066376, 0.3096318244934082, 3.4078521728515625, 1.1290555000305176], [0.34988993406295776, -0.847206175327301, -3.1821866035461426, -1.4218026399612427], [-0.1990450620651245, 0.07859814912080765, -0.44616302847862244, -0.017206648364663124], [0.3171628713607788, 0.6495152711868286, 3.100477933883667, 1.081156611442566]], "SEQL.0.bias": [1.747664213180542, -0.5487701892852783, -0.5746907591819763, -0.4109570384025574, -0.4181538224220276, -0.5959086418151855, -0.21000495553016663, 1.3659089803695679, 0.1344842165708542, 1.7720755338668823, 1.8091374635696411, 1.9146982431411743, -0.43846631050109863, 1.785086989402771, 1.7663415670394897, -0.370911180973053, -0.24668413400650024, 1.7462249994277954, -0.32860666513442993, -0.4848020076751709, -0.18168076872825623, 0.7719473838806152, 1.8480581045150757, 1.6745080947875977, 1.8049207925796509, 1.7158629894256592, 1.4329768419265747, -0.321971595287323, 1.3449485301971436, 1.9757764339447021, 1.5752179622650146, 1.9172000885009766, -0.20106332004070282, 1.9703196287155151, -0.47619184851646423, 1.7362338304519653, 1.7956651449203491, -0.5697032809257507, -0.22572991251945496, 1.5355435609817505, 1.9211360216140747, -0.09122700244188309, 0.14737993478775024, 1.937355875968933, -0.312940776348114, -0.4484185576438904, 0.013184175826609135, 1.574971318244934, -0.19474200904369354, 1.6278506517410278, 0.8453234434127808, -0.5462657809257507, 1.985167145729065, -0.4065338969230652, -0.014782636426389217, 0.770753800868988, 0.6837533116340637, 1.8905813694000244, 1.878188967704773, -0.18943533301353455, 1.7352174520492554, -0.21197141706943512, 1.700545072555542, -0.29842478036880493, 1.9929481744766235, 1.920356035232544, 1.7139772176742554, 2.188375949859619, -0.4150984287261963, 1.5950103998184204, 1.8874300718307495, -0.30206626653671265, 1.7114412784576416, 1.7657946348190308, -0.39935755729675293, 1.9437540769577026, 0.764779269695282, -0.2775401771068573, 1.960868239402771, -0.47612354159355164, 1.7558739185333252, -0.026570601388812065, 1.4499409198760986, -0.12811492383480072, 1.5995187759399414, 1.9129024744033813, -0.003529952373355627, -0.3561691641807556, -0.5871880650520325, -0.48101168870925903, 1.9495954513549805, -0.2908901572227478, 1.6652911901474, 1.016156792640686, 1.6430487632751465, 1.7840285301208496, 1.8592259883880615, -0.4075477123260498, 0.525036633014679, 2.0458362102508545, 1.339842438697815, -0.4627971351146698, -0.4141417443752289, -0.2510816752910614, 0.049726054072380066, 2.024609088897705, -0.43216168880462646, 1.4419574737548828, -0.49319010972976685, 1.6988911628723145, -0.41062700748443604, 0.8910682797431946, 1.4887397289276123, -0.00471214484423399, 1.426591396331787, -0.46610671281814575, -0.2610323131084442, 1.6748809814453125, 0.23083387315273285, 1.92691969871521, 0.0002697046147659421, 1.8190299272537231, -0.0037220001686364412, 1.7392631769180298, -0.023560861125588417, -0.41322994232177734, 1.6798992156982422, -0.3250289559364319], "SEQL.2.weight": [[-0.04194663465023041, -0.05960012972354889, 0.050168611109256744, -0.06316995620727539, -0.01068098098039627, 0.031630296260118484, -0.053161073476076126, -0.05845879018306732, 0.007739468012005091, 0.018341684713959694, 0.010386735200881958, -0.05175045132637024, 0.04817941039800644, -0.026970308274030685, -0.020386505872011185, 0.02287706732749939, 0.023056063801050186, -0.034422148019075394, -0.09564957022666931, -0.00568190636113286, 0.03578085079789162, -0.08690834045410156, 0.013704893179237843, -0.06559613347053528, 0.020839061588048935, -0.0009370511397719383, 0.05213054269552231, -0.03486015275120735, -0.08064957708120346, -0.09343373030424118, 0.02217145822942257, 0.046895794570446014, 0.03541069105267525, -0.020621664822101593, -0.061556376516819, -0.005435420200228691, 0.009831286035478115, -0.08559336513280869, -0.09473157674074173, 0.03809581696987152, 0.06709248572587967, -0.006201816722750664, -0.03665091469883919, 0.03581693395972252, 0.011108307167887688, -0.07085979729890823, -0.052596867084503174, -0.007753530517220497, 0.07341523468494415, 0.050456855446100235, -0.026385009288787842, 0.04171185940504074, 0.05591506138443947, -0.07152785360813141, -0.0645085871219635, 0.04461842402815819, -0.013375477865338326, -0.07739394158124924, 0.06878478825092316, 0.049577124416828156, 0.0523160845041275, -0.046663250774145126, -0.011057713069021702, -0.009034113958477974, -0.028665922582149506, -0.0030336491763591766, -0.037951722741127014, 0.07586273550987244, -0.026044759899377823, 0.04515067860484123, -0.08218375593423843, -0.05545768141746521, -0.07826121151447296, -0.0010624220594763756, -0.007211578544229269, 0.06173546984791756, 0.028763627633452415, 0.06743127852678299, -0.006338604725897312, -0.06524130702018738, 0.0428498312830925, 0.024251572787761688, -0.014469465240836143, -0.016384566202759743, -0.06868243962526321, -0.0074574206955730915, -0.07792762666940689, -0.0458090715110302, 0.0011721880873665214, 0.051802173256874084, 0.017239771783351898, 0.08401114493608475, 0.05383933335542679, -0.0723210871219635, 0.0022464292123913765, 0.04757459834218025, -0.09093726426362991, 0.056018028408288956, 0.0747993141412735, -0.049900710582733154, 0.005348841659724712, -0.06013017147779465, -0.07382860034704208, -0.012152358889579773, 0.03326216712594032, 0.028369756415486336, -0.05820053815841675, 0.043559808284044266, 0.0577714741230011, -0.01741480641067028, -0.059423089027404785, -0.06681708246469498, -0.0581548810005188, 0.057702451944351196, -0.07593496143817902, -0.0692271739244461, 0.046862006187438965, -0.06436993181705475, -0.03329641371965408, 0.03332618623971939, -0.054815955460071564, -0.08741472661495209, 0.029951538890600204, -0.008160317316651344, 0.039457984268665314, -0.06628135591745377, 0.010865539312362671, 0.05974385887384415], [1.1796576976776123, -1.7512754201889038, -2.7604637145996094, -2.80812931060791, -2.2575631141662598, -2.54740309715271, -2.5718841552734375, 0.9514377117156982, -0.969032883644104, 1.1534193754196167, 1.1302622556686401, 1.2914270162582397, -2.135108232498169, 1.2834702730178833, 1.1619511842727661, -1.8778839111328125, -2.1039130687713623, 1.005513310432434, -2.394519567489624, -2.584332227706909, -2.0927414894104004, -0.29008251428604126, 1.1825453042984009, 1.0931243896484375, 1.152665615081787, 1.1600967645645142, 1.3920050859451294, -2.0175070762634277, 1.2594356536865234, 1.1150535345077515, 1.285290241241455, 1.2468606233596802, -1.832698106765747, 1.2371455430984497, -2.2610177993774414, 1.1845062971115112, 1.2257884740829468, -2.0687761306762695, -1.3983778953552246, 1.0330027341842651, 1.2847347259521484, -1.3202215433120728, -1.0931700468063354, 1.2139480113983154, -1.6465528011322021, -2.2746381759643555, -0.7868015170097351, 1.2424818277359009, -1.3976542949676514, 1.3608765602111816, 1.2072430849075317, -2.624389410018921, 1.2840605974197388, -1.6377434730529785, -1.0328559875488281, 1.2299113273620605, -0.9362355470657349, 1.1904816627502441, -0.07317224889993668, -1.7215088605880737, 1.1354546546936035, -2.4476635456085205, 1.3749439716339111, -1.9089823961257935, 1.3064054250717163, 1.230182409286499, 0.992756724357605, -0.4109777808189392, -2.3984596729278564, 1.3548099994659424, 1.2777924537658691, -1.6401859521865845, 1.3286494016647339, 1.2398121356964111, 0.05678342655301094, 0.8894201517105103, 1.3551714420318604, -1.4900070428848267, 1.1139938831329346, 0.04668029397726059, 1.3212376832962036, -1.566366195678711, 1.3359309434890747, 0.11433165520429611, 1.1910502910614014, 1.1291447877883911, -1.3793575763702393, -0.33711084723472595, -2.5600087642669678, -1.9462754726409912, 1.2272841930389404, -1.62423574924469, 1.4166475534439087, -0.716951847076416, 1.2433319091796875, 0.9547045826911926, 1.257847785949707, -2.613158941268921, 0.9032150506973267, 1.3787533044815063, 1.2113730907440186, -0.05010451003909111, -2.1007537841796875, -1.6386955976486206, -0.7028033137321472, 1.3092843294143677, -2.75372052192688, 1.3308098316192627, -0.06950925290584564, 1.381921648979187, -1.419703722000122, 1.1551017761230469, 1.2687402963638306, -1.458067774772644, 1.1027706861495972, -2.49515962600708, -2.6328823566436768, 1.0352623462677002, -0.7311570644378662, 1.2866556644439697, -1.6662999391555786, 1.423830270767212, -1.1485183238983154, 1.3249434232711792, -0.9311539530754089, -2.7394187450408936, 1.2692078351974487, -2.0084545612335205], [1.1734446287155151, -1.6665912866592407, -2.873138904571533, -2.8100109100341797, -2.4288182258605957, -2.6576576232910156, -2.571248769760132, 0.9354479312896729, -1.0456104278564453, 1.1028921604156494, 1.1575663089752197, 1.2642532587051392, -2.1845815181732178, 1.2971137762069702, 1.0913397073745728, -1.7745730876922607, -2.0009987354278564, 0.9740015864372253, -2.5133004188537598, -2.708540201187134, -2.1119744777679443, -0.5113480687141418, 1.2875308990478516, 1.0856528282165527, 1.0227220058441162, 1.1422703266143799, 1.1777937412261963, -1.8529374599456787, 1.1435868740081787, 1.2261475324630737, 1.2188737392425537, 1.2351959943771362, -1.93582284450531, 1.1873576641082764, -2.2573604583740234, 1.209220290184021, 1.1802959442138672, -2.0838043689727783, -1.4089012145996094, 1.1187442541122437, 1.3327956199645996, -1.3829524517059326, -1.180038571357727, 1.2432726621627808, -1.684372901916504, -2.1794941425323486, -0.9097777009010315, 1.3095574378967285, -1.514503836631775, 1.360284686088562, 1.1818673610687256, -2.63452410697937, 1.2138174772262573, -1.5770268440246582, -1.2034664154052734, 1.2930296659469604, -0.899539053440094, 1.2076793909072876, -0.20378156006336212, -1.8963502645492554, 0.9562891125679016, -2.349979877471924, 1.3070893287658691, -2.0355143547058105, 1.3058102130889893, 1.2476658821105957, 0.9820474982261658, -0.24870958924293518, -2.4636645317077637, 1.3061684370040894, 1.1018186807632446, -1.7954071760177612, 1.3065462112426758, 1.1436160802841187, -0.05557962879538536, 0.7939504384994507, 1.3349803686141968, -1.570818305015564, 1.2327805757522583, -0.06426897644996643, 1.1652101278305054, -1.6990457773208618, 1.2713834047317505, 0.02850833535194397, 1.2057191133499146, 1.199908971786499, -1.5063672065734863, -0.36012738943099976, -2.7669079303741455, -1.9979859590530396, 1.2685410976409912, -1.5504852533340454, 1.256637692451477, -0.6073488593101501, 1.2670884132385254, 1.0247725248336792, 1.1656795740127563, -2.6387369632720947, 0.8898951411247253, 1.2163218259811401, 1.1128870248794556, -0.030691705644130707, -2.197390556335449, -1.6402716636657715, -0.8283258676528931, 1.2554312944412231, -2.8241870403289795, 1.261536717414856, 0.023810449987649918, 1.3140865564346313, -1.4909541606903076, 1.138586163520813, 1.120474934577942, -1.6358119249343872, 1.0929630994796753, -2.553312063217163, -2.5110714435577393, 0.9302272200584412, -1.0241928100585938, 1.2604687213897705, -1.616556167602539, 1.4298303127288818, -1.2182422876358032, 1.1747586727142334, -1.0746599435806274, -2.6460397243499756, 1.2887145280838013, -2.2147653102874756], [1.4331713914871216, -1.8642423152923584, -2.7814459800720215, -2.6712844371795654, -2.4815759658813477, -2.6442995071411133, -2.1929421424865723, 1.1011738777160645, -0.6695323586463928, 1.4420487880706787, 1.3365893363952637, 1.1258381605148315, -2.09836483001709, 1.3306628465652466, 0.9375638365745544, -1.6727995872497559, -1.786150336265564, 1.4938682317733765, -2.588944435119629, -2.683751106262207, -2.2949070930480957, -0.7452750205993652, 1.3883826732635498, 1.265649676322937, 1.3434115648269653, 0.7772069573402405, 1.0139687061309814, -1.7648494243621826, 1.3520501852035522, 1.4516619443893433, 1.0735571384429932, 1.29267156124115, -2.0815372467041016, 1.500421404838562, -2.378568172454834, 1.4922946691513062, 1.2989052534103394, -1.9326688051223755, -1.624240756034851, 1.1369301080703735, 1.4130024909973145, -1.462699055671692, -0.7067858576774597, 1.3978289365768433, -1.6895291805267334, -2.2787017822265625, -0.9797835946083069, 1.2947078943252563, -1.2450350522994995, 1.1413607597351074, 1.1941512823104858, -2.6523101329803467, 1.1826224327087402, -1.6766517162322998, -1.4681364297866821, 1.2240169048309326, -0.4166911840438843, 1.3346389532089233, -0.275518000125885, -2.049867868423462, 1.0059412717819214, -2.6225359439849854, 1.3670356273651123, -2.26027250289917, 1.2638880014419556, 1.4113010168075562, 1.4712008237838745, 0.13734236359596252, -2.3225581645965576, 1.3340920209884644, 1.0678941011428833, -1.7644712924957275, 1.0681365728378296, 1.3424186706542969, -0.03673204034566879, 1.0731709003448486, 1.3618860244750977, -1.6409107446670532, 1.4992725849151611, 0.03877495974302292, 1.4692437648773193, -1.8475433588027954, 1.1271052360534668, 0.04247087985277176, 1.3182671070098877, 1.328172206878662, -1.731544852256775, -0.46701765060424805, -2.8527491092681885, -2.1092379093170166, 1.2509474754333496, -1.4639852046966553, 1.067853569984436, -0.31402719020843506, 1.228506326675415, 0.9665611982345581, 1.4339147806167603, -2.4409170150756836, 0.931614100933075, 1.3348764181137085, 1.1518338918685913, -0.040967706590890884, -1.916481614112854, -1.6915642023086548, -0.9732431173324585, 1.297719120979309, -2.5118675231933594, 0.9940144419670105, -0.07743823528289795, 1.5301624536514282, -1.4789941310882568, 1.3769850730895996, 0.9126550555229187, -1.7821396589279175, 1.011283278465271, -2.3701484203338623, -2.197360038757324, 1.4360828399658203, -1.190456509590149, 1.3544625043869019, -1.1783689260482788, 1.2243387699127197, -1.3887834548950195, 1.1310465335845947, -1.1966608762741089, -2.549919605255127, 1.4737657308578491, -2.255457878112793], [-0.014475841075181961, 0.028473788872361183, -0.08288999646902084, -0.022374192252755165, 0.03087722323834896, -0.006037567742168903, -0.039364155381917953, -0.04231978580355644, 0.054879095405340195, -0.015563028864562511, -0.04456197842955589, -0.044537607580423355, 0.003893968416377902, 0.02436746284365654, 0.07163292169570923, 0.001586554921232164, -0.030293162912130356, 0.07343059033155441, -0.03559720516204834, -0.06941324472427368, -0.03318515419960022, -0.049830060452222824, -0.05116552487015724, -0.01265259925276041, 0.05523368716239929, 0.07896213978528976, -0.04098795726895332, 0.01545604970306158, 0.07336081564426422, -0.06864865124225616, -0.034672390669584274, -0.05513418838381767, 0.0080135278403759, 0.017885394394397736, 0.0340295135974884, 0.004587241914123297, 0.06277657300233841, 0.08597027510404587, 0.005535556469112635, -0.08747367560863495, -0.05381012335419655, 0.03390307351946831, -0.03604183346033096, 0.060487281531095505, 0.023009691387414932, -0.008308861404657364, 0.025533286854624748, -0.0792136862874031, -0.018310202285647392, 0.021497927606105804, -0.03147843852639198, 0.04976224526762962, 0.02378956787288189, 0.007111026905477047, -0.005221899598836899, 0.027690932154655457, 0.0469093881547451, -0.08254937082529068, -0.029415106400847435, 0.06234554573893547, 0.07057230174541473, 0.03246687725186348, -0.012370362877845764, -0.04986123740673065, -0.07693540304899216, -0.014686575159430504, -0.08011477440595627, 0.03116065077483654, -0.03269211947917938, -0.0346844419836998, -0.012420064769685268, 0.049515802413225174, -0.051351193338632584, 0.036335598677396774, 0.06953218579292297, -0.0660017877817154, -0.07522838562726974, 0.06794827431440353, -0.022764766588807106, 0.0556894950568676, 0.07213306427001953, -0.08381433039903641, 0.023342663422226906, 0.07228973507881165, -0.0648038312792778, -0.019408676773309708, -0.06873428821563721, -0.08637788891792297, -0.0650324672460556, 0.03613575920462608, 0.08515147119760513, -0.02212156355381012, 0.017585214227437973, 0.06520090997219086, 0.00223501562140882, 0.03755669668316841, -0.0646369606256485, -0.06957704573869705, -0.010101313702762127, -0.0727963075041771, -0.05857643857598305, 0.07720079272985458, 0.05512465164065361, 0.022045930847525597, -0.03499111533164978, 0.0834931805729866, -0.03521057218313217, -0.0693829208612442, -0.07668107002973557, -0.06170577555894852, 0.08520817756652832, -0.03778063505887985, -0.009920145384967327, 0.011362695135176182, -0.04871129244565964, 0.005142326466739178, 0.023805392906069756, 0.01739480532705784, 0.02624306082725525, 0.028157740831375122, 0.05572611838579178, -0.008808227255940437, -0.014117940329015255, 0.06700656563043594, -0.03934549540281296, -0.007922922261059284, -0.031684376299381256, -0.03535209223628044], [1.132053256034851, -1.579849123954773, -2.626210927963257, -2.906271457672119, -2.0515260696411133, -2.329949140548706, -2.555063486099243, 1.0865532159805298, -1.1515259742736816, 1.1750937700271606, 1.3796254396438599, 1.5318207740783691, -1.979856252670288, 1.4214892387390137, 1.4425815343856812, -1.9078483581542969, -2.213197946548462, 1.0490186214447021, -2.1096415519714355, -2.521641254425049, -1.930485486984253, -0.012604051269590855, 1.4240076541900635, 1.304194450378418, 1.1439974308013916, 1.522711992263794, 1.719665288925171, -2.0900630950927734, 1.3583356142044067, 1.236350655555725, 1.5487966537475586, 1.512007474899292, -1.7332607507705688, 1.275100588798523, -2.1979987621307373, 1.1675812005996704, 1.4879897832870483, -2.080305576324463, -1.1745600700378418, 1.2114962339401245, 1.6647568941116333, -1.0997450351715088, -1.2260353565216064, 1.3760950565338135, -1.5361560583114624, -2.1521804332733154, -0.45478758215904236, 1.5126652717590332, -1.5652239322662354, 1.72637140750885, 1.2650845050811768, -2.44034481048584, 1.5384169816970825, -1.3219419717788696, -0.8125855326652527, 1.3229820728302002, -0.9753018617630005, 1.2950985431671143, 0.21245785057544708, -1.517726182937622, 1.3404664993286133, -2.1528918743133545, 1.7045893669128418, -1.7276318073272705, 1.5538532733917236, 1.4511089324951172, 1.1300128698349, -0.4663161337375641, -2.5726795196533203, 1.48817777633667, 1.4791947603225708, -1.496288537979126, 1.719578742980957, 1.4754812717437744, 0.022917717695236206, 0.8416115045547485, 1.4489020109176636, -1.2743245363235474, 1.2314882278442383, 0.013934561051428318, 1.430088996887207, -1.3554795980453491, 1.6814926862716675, 0.08039826154708862, 1.3339964151382446, 1.3187261819839478, -1.266109824180603, -0.35703930258750916, -2.4249913692474365, -1.9151469469070435, 1.471545696258545, -1.538529872894287, 1.7026455402374268, -0.8520554900169373, 1.6243776082992554, 1.2438721656799316, 1.4363059997558594, -2.608924627304077, 1.0201002359390259, 1.5720609426498413, 1.25058114528656, -0.035651035606861115, -2.177356481552124, -1.5079896450042725, -0.4395502507686615, 1.5411734580993652, -2.894109010696411, 1.5644201040267944, -0.027919599786400795, 1.5924465656280518, -1.2718549966812134, 1.305647373199463, 1.6922281980514526, -1.2140402793884277, 1.205886960029602, -2.6758430004119873, -2.6873133182525635, 1.0922038555145264, -0.5484097003936768, 1.5273756980895996, -1.6500900983810425, 1.6965206861495972, -0.9926291108131409, 1.4580981731414795, -0.6045392751693726, -2.724199056625366, 1.4622448682785034, -1.877469539642334], [-0.07615703344345093, 0.04216976463794708, -0.03213466703891754, -0.0782768726348877, 0.05852682888507843, -0.07887423038482666, -0.005033798050135374, 0.045065999031066895, -0.04510488361120224, 0.046507127583026886, -0.020836278796195984, -0.10022086650133133, -0.09553010016679764, -0.04296619072556496, -0.017259621992707253, -0.059810150414705276, -0.07631406933069229, -0.014798082411289215, 0.0366218239068985, 0.0036151474341750145, 0.05445144325494766, 0.0627000629901886, -0.02908565104007721, -0.01770726963877678, 0.032904256135225296, -0.02019055001437664, 0.038145966827869415, -0.025800982490181923, -0.07447528094053268, -0.09084445983171463, -0.07475230097770691, 0.026950445026159286, 0.024150868877768517, 0.023725751787424088, 0.055314093828201294, -0.03277341648936272, 0.005371619947254658, -0.05472749099135399, -0.04266943410038948, 0.04639848321676254, -0.01820964366197586, -0.0008387300185859203, -0.07315372675657272, 0.022962050512433052, 0.06536358594894409, 0.001558239571750164, 0.05618850886821747, 0.017656423151493073, -0.02932162582874298, 0.017279602587223053, 0.022377079352736473, -0.07950305193662643, 0.048913124948740005, -0.06559187173843384, 0.02996266633272171, -0.09582295268774033, -0.08818048238754272, 0.01634712517261505, -0.020422732457518578, 0.031122006475925446, -0.10339788347482681, -0.0037584807723760605, 0.061220474541187286, 0.0791432112455368, 0.06485641747713089, -0.0458911657333374, -0.05232728645205498, -0.0383424386382103, 0.07485391944646835, -0.006462790071964264, 0.023490523919463158, -0.001887630671262741, 0.0146253053098917, 0.018605470657348633, 0.024015789851546288, -0.04059775546193123, -0.022768665105104446, 0.07335814833641052, -0.08030306547880173, -0.03235655650496483, -0.09680569916963577, -0.00295078381896019, -0.018784090876579285, -0.02831142768263817, 0.0716976672410965, 0.012147638015449047, 0.06638447940349579, 0.07986881583929062, -0.06302239745855331, 0.015377641655504704, 0.06243234872817993, -0.05088157206773758, -0.055608078837394714, -0.007539681158959866, 0.020185846835374832, -0.036638010293245316, 0.056190140545368195, 0.051155537366867065, 0.009687144309282303, -0.07158739119768143, -0.05814594775438309, 0.010897140949964523, 0.02068152092397213, -0.07588820159435272, 0.08334504812955856, -0.09260303527116776, 0.056165214627981186, -0.030225137248635292, -0.0063812751322984695, -0.06985224038362503, -0.0802050530910492, -0.01720622554421425, 0.023514049127697945, -0.0883449912071228, -0.02222589962184429, -0.04235459119081497, 0.03378494456410408, 0.0542357936501503, 0.05403397977352142, 0.005877362564206123, -0.010611011646687984, 0.0023911278694868088, 0.016593795269727707, -0.06158620864152908, 0.06115628778934479, -0.028521887958049774, 0.06657728552818298, 0.010896934196352959], [1.4291120767593384, -1.754740595817566, -2.7119386196136475, -2.6861987113952637, -2.3267080783843994, -2.611842393875122, -2.3625094890594482, 1.1719474792480469, -0.890900731086731, 1.3558212518692017, 1.4411765336990356, 1.44932222366333, -2.1115193367004395, 1.5138734579086304, 1.34130859375, -1.769399642944336, -1.956845998764038, 1.3515121936798096, -2.3029537200927734, -2.6837356090545654, -1.998079776763916, -0.32427507638931274, 1.490112543106079, 1.3243387937545776, 1.372601866722107, 1.2381008863449097, 1.4816526174545288, -1.8279967308044434, 1.4369746446609497, 1.5296701192855835, 1.430214524269104, 1.516067624092102, -1.9207252264022827, 1.5067249536514282, -2.3887577056884766, 1.4347494840621948, 1.5751261711120605, -1.94766104221344, -1.2917417287826538, 1.3717756271362305, 1.61591637134552, -1.286749005317688, -0.867948055267334, 1.493937373161316, -1.6903008222579956, -2.2469048500061035, -0.7855661511421204, 1.5268510580062866, -1.2741581201553345, 1.4261481761932373, 1.398917555809021, -2.637802839279175, 1.386620283126831, -1.5098294019699097, -1.0641876459121704, 1.3133635520935059, -0.7402637004852295, 1.4982869625091553, 0.04018664360046387, -1.721389889717102, 1.1431143283843994, -2.422743797302246, 1.5324978828430176, -2.0099151134490967, 1.4912272691726685, 1.3983970880508423, 1.4098658561706543, -0.0601988323032856, -2.4356849193573, 1.4908782243728638, 1.3968714475631714, -1.7552540302276611, 1.4746609926223755, 1.4752832651138306, 0.007996131666004658, 1.0929512977600098, 1.4849188327789307, -1.4304734468460083, 1.5392506122589111, 0.0764307826757431, 1.5341029167175293, -1.4552103281021118, 1.3913589715957642, -2.296970342285931e-05, 1.3866384029388428, 1.461285948753357, -1.4687267541885376, -0.40193405747413635, -2.6390480995178223, -2.134749174118042, 1.4264061450958252, -1.483889102935791, 1.4044625759124756, -0.5007575154304504, 1.5587888956069946, 1.2029800415039062, 1.5116674900054932, -2.6102957725524902, 0.9770572781562805, 1.5374268293380737, 1.2477134466171265, -0.07404926419258118, -2.1094183921813965, -1.6332298517227173, -0.6913720369338989, 1.5039739608764648, -2.7173402309417725, 1.4716150760650635, -0.07948481291532516, 1.64435875415802, -1.4861339330673218, 1.3643158674240112, 1.3556537628173828, -1.4264185428619385, 1.2671312093734741, -2.4256956577301025, -2.4077913761138916, 1.2372994422912598, -0.8581270575523376, 1.4421863555908203, -1.3427269458770752, 1.5849663019180298, -1.1206904649734497, 1.312933325767517, -0.8521918654441833, -2.622858762741089, 1.4668632745742798, -2.1226003170013428], [-0.08128298819065094, -0.008272246457636356, 0.005068664439022541, 0.019623003900051117, 0.07870908826589584, -0.00985280517488718, 0.03502245992422104, 0.07700458914041519, -0.034970179200172424, -0.04248204082250595, -0.07755564898252487, -0.04703314229846001, 0.029518861323595047, -0.06151271238923073, 0.012521164491772652, -0.07225577533245087, -0.04739811271429062, 0.08623968064785004, -0.053021062165498734, 0.07277101278305054, -0.082887664437294, 0.020206084474921227, -0.08655745536088943, 0.03661741316318512, -0.03622716665267944, -0.0010242738062515855, 0.02863350510597229, 0.063609279692173, -0.018035268411040306, 0.010266045108437538, -0.0030373651534318924, -0.018049366772174835, -0.005076134577393532, -0.02932645194232464, 0.06496985256671906, -0.08764337003231049, 0.011568308807909489, -0.0301405917853117, 0.006476179230958223, -0.05945857986807823, -0.04901883751153946, 0.04958859086036682, -0.07673230767250061, 0.021973848342895508, 0.046788059175014496, 0.02371915988624096, 0.04164044186472893, -0.015385780483484268, -0.07469206303358078, 0.016977235674858093, -0.06138443946838379, 0.0735069140791893, -0.03222858905792236, -0.07381055504083633, 0.06390806287527084, 0.005212321877479553, 0.044507093727588654, 0.04949304461479187, 0.0405854657292366, -0.08738455921411514, -0.04938926547765732, -0.061086639761924744, 0.009968403726816177, -0.0011533801443874836, 0.05103959143161774, -0.01954931952059269, -0.06434831023216248, -0.0707382783293724, 0.059771742671728134, 0.023903246968984604, -0.04753830283880234, -0.03281277418136597, 0.07197144627571106, 0.038368433713912964, -0.014533255249261856, -0.04514998942613602, -0.003111375030130148, -0.08640892803668976, -0.037954963743686676, 0.0003592807915993035, -0.014008326455950737, -0.037060290575027466, 0.03954814746975899, -0.023825032636523247, 0.08097977191209793, 0.006932218559086323, -0.0663967952132225, 0.01609225571155548, -0.08175870031118393, -0.008416556753218174, -0.060808923095464706, -0.01639879122376442, -0.004967669956386089, -0.03609439358115196, 0.005166465882211924, -0.08491348475217819, 0.02955193631350994, -0.05576976388692856, 0.08442496508359909, -0.01903548650443554, -0.059920087456703186, -0.022306302562355995, -0.08508608490228653, 0.02084975130856037, 0.01882670260965824, 0.0025894707068800926, -0.06353443115949631, 0.08725299686193466, 0.013678211718797684, 0.009421253576874733, -0.06869626045227051, -0.004897959064692259, -0.006135969888418913, 0.07374878972768784, -0.01459436770528555, -0.02676933817565441, 0.027373377233743668, -0.08040166646242142, 0.07155127823352814, -0.0528973825275898, 0.008966910652816296, 0.06158013641834259, 0.025586983188986778, -0.0772111713886261, -0.08457212895154953, 0.0422489270567894, -0.031095564365386963, -0.04639012739062309], [0.04104477912187576, 0.034222543239593506, 0.03741779178380966, 0.01255329605191946, -0.032791100442409515, -0.07850725948810577, -0.0785699263215065, -0.07263969630002975, 0.010683110915124416, -0.09040695428848267, 0.017129655927419662, -0.02755843475461006, 0.006837546359747648, -0.10435723513364792, -0.00920130591839552, 0.06594813615083694, -0.026245828717947006, 0.046717483550310135, -0.0624273419380188, 0.016970207914710045, -0.007904430851340294, -0.06490536034107208, 0.05528654158115387, -0.0711364820599556, -0.0560220442712307, -0.0077241091057658195, -0.0901290625333786, -0.027732759714126587, 0.019747771322727203, -0.0441424623131752, -0.07569728046655655, -0.0851355493068695, 0.01410933118313551, -0.10159950703382492, -0.05920007452368736, 0.014515053480863571, 0.005823864601552486, 0.025406543165445328, -0.007736001163721085, 0.03789963945746422, -0.005643763113766909, -4.3137297325301915e-05, -0.08696149289608002, 0.029369425028562546, -0.012196075171232224, -0.04449501633644104, -0.04818509891629219, 0.07258676737546921, 0.01682884991168976, -0.08941737562417984, 0.05816594138741493, -0.06304258853197098, 0.03270774707198143, 0.013538705185055733, -0.008975445292890072, -0.05101146548986435, -0.03868607059121132, 0.03620719164609909, 0.07178711146116257, 0.05797591805458069, -0.032598935067653656, -0.001005655387416482, -0.08896101266145706, -0.004974307958036661, -0.08329851925373077, -0.07693836092948914, 0.03354664891958237, 0.06740443408489227, -0.07307611405849457, -0.04866265505552292, -0.06772874295711517, -0.05133780464529991, -0.060173436999320984, 0.0304061621427536, -0.013345008715987206, -0.07966881990432739, -0.06229688599705696, -0.05601465702056885, -0.05212569236755371, -0.027892805635929108, -0.04161711782217026, 0.07062408328056335, -0.022423697635531425, 0.035128094255924225, 0.0683915764093399, -0.02765020728111267, 0.0348983071744442, 0.04209639132022858, 0.04504435881972313, -0.08504407852888107, 0.015168960206210613, 0.029324261471629143, 0.07205633074045181, -0.029424548149108887, 0.0603865422308445, -0.038959093391895294, 0.03883790969848633, 0.063062384724617, 0.05901159718632698, -0.02138286828994751, 0.07671479135751724, -0.047706764191389084, -0.049838170409202576, -0.01222244929522276, 0.03934755176305771, -0.0020080478861927986, -0.020764747634530067, -0.06830007582902908, 0.07543907314538956, -0.04705137014389038, -0.03560573235154152, -0.09394039213657379, -0.01416931301355362, -0.009504664689302444, 0.0691584125161171, 0.06364040821790695, -0.028892289847135544, 0.06667371094226837, 0.02260417304933071, -0.050568852573633194, -0.019977623596787453, -0.01817805878818035, -0.09585791081190109, -0.0959397554397583, -0.0708431825041771, -0.08203309029340744, -0.00025781989097595215, 0.07693947106599808], [1.888671636581421, -1.648914098739624, -2.7317254543304443, -2.03721284866333, -2.7795543670654297, -2.541923761367798, -1.4821515083312988, 1.5925514698028564, -0.087697833776474, 1.8605809211730957, 1.5322151184082031, 1.1330355405807495, -1.8544975519180298, 1.3252772092819214, 0.7848396301269531, -1.4497987031936646, -1.3028287887573242, 1.9569940567016602, -2.7034788131713867, -2.6161367893218994, -2.556339979171753, -1.1298460960388184, 1.3831514120101929, 1.6854239702224731, 1.6999081373214722, 0.5355549454689026, 0.967591404914856, -1.1054675579071045, 1.5874066352844238, 1.787885069847107, 1.1029775142669678, 1.1711328029632568, -2.441016435623169, 1.8866946697235107, -2.1729342937469482, 1.879355549812317, 1.603238582611084, -1.3587323427200317, -1.943705677986145, 1.4228366613388062, 1.4899282455444336, -1.6592090129852295, -0.1466338187456131, 1.7854671478271484, -1.6277717351913452, -2.360091209411621, -1.2988193035125732, 1.35850191116333, -0.5575616359710693, 1.1010053157806396, 1.4525160789489746, -2.7166872024536133, 1.1408382654190063, -1.810549020767212, -1.7044479846954346, 1.3181227445602417, 0.32262566685676575, 1.6826847791671753, -0.6648260951042175, -2.2679543495178223, 0.9141772389411926, -2.6947953701019287, 1.3190171718597412, -2.5323543548583984, 1.2033065557479858, 1.578165054321289, 1.9961262941360474, 0.8936904072761536, -2.0799331665039062, 1.4223780632019043, 1.0966252088546753, -1.8635956048965454, 0.9917651414871216, 1.613029956817627, 0.01998552866280079, 1.5732944011688232, 1.6893408298492432, -1.6721194982528687, 1.8206404447555542, 0.07158207148313522, 1.6366583108901978, -2.135241985321045, 0.8750324249267578, 0.026101937517523766, 1.7441611289978027, 1.77603280544281, -2.1098060607910156, -0.5139545798301697, -2.888929605484009, -1.8324668407440186, 1.1847130060195923, -1.187191128730774, 1.0542935132980347, 0.6484178900718689, 1.2755126953125, 0.7270914316177368, 1.5886460542678833, -2.1045587062835693, 1.142379879951477, 1.3412554264068604, 1.3921031951904297, -0.06503240019083023, -1.6323388814926147, -1.831291675567627, -1.3820114135742188, 1.6176478862762451, -2.0956950187683105, 0.9778676629066467, -0.07787840068340302, 1.6613327264785767, -1.516058325767517, 1.5907320976257324, 0.7884752750396729, -2.087315320968628, 1.3029322624206543, -1.6704798936843872, -1.5957002639770508, 1.9859812259674072, -1.6474748849868774, 1.425131916999817, -0.5707394480705261, 1.1270294189453125, -1.7736047506332397, 1.0990638732910156, -1.4407801628112793, -1.825722098350525, 1.7214555740356445, -2.2935774326324463], [1.1670081615447998, -1.7335872650146484, -2.7569355964660645, -2.7151598930358887, -2.360323667526245, -2.586503028869629, -2.5209381580352783, 1.0285675525665283, -0.9019057750701904, 1.3147151470184326, 1.260654091835022, 1.1992859840393066, -2.1672887802124023, 1.2113635540008545, 1.1792925596237183, -1.789542555809021, -2.0697906017303467, 1.1719826459884644, -2.387399673461914, -2.691661834716797, -2.172244071960449, -0.41029733419418335, 1.3182721138000488, 1.2207560539245605, 1.2648491859436035, 1.0883435010910034, 1.315740704536438, -1.9480751752853394, 1.2075457572937012, 1.3792186975479126, 1.1974858045578003, 1.2138657569885254, -1.9563814401626587, 1.3152180910110474, -2.4557788372039795, 1.228134274482727, 1.249994158744812, -2.0699899196624756, -1.4868521690368652, 1.055251955986023, 1.4252586364746094, -1.5069496631622314, -1.0318983793258667, 1.2738547325134277, -1.6162357330322266, -2.273477554321289, -0.8784893751144409, 1.287254810333252, -1.453017234802246, 1.3039751052856445, 1.1324899196624756, -2.788024425506592, 1.2084705829620361, -1.6135162115097046, -1.3171744346618652, 1.2908344268798828, -0.7640691995620728, 1.3497978448867798, -0.14245504140853882, -1.9696540832519531, 1.0725672245025635, -2.527465581893921, 1.4172219038009644, -2.1325838565826416, 1.3683867454528809, 1.3654760122299194, 1.1380946636199951, -0.23048993945121765, -2.4155304431915283, 1.3965951204299927, 1.3045661449432373, -1.878173828125, 1.2351195812225342, 1.3736313581466675, -0.014776632189750671, 1.0169183015823364, 1.3140536546707153, -1.5913212299346924, 1.3315037488937378, -0.016872888430953026, 1.3150652647018433, -1.5918232202529907, 1.277934193611145, 0.07991450279951096, 1.2090598344802856, 1.210091233253479, -1.5442804098129272, -0.4072101414203644, -2.741487503051758, -2.087048053741455, 1.2045085430145264, -1.5506317615509033, 1.2107218503952026, -0.6157945394515991, 1.271628737449646, 1.0623866319656372, 1.3929071426391602, -2.678030490875244, 0.9835330843925476, 1.4033640623092651, 1.1200954914093018, 0.05917945131659508, -2.0572736263275146, -1.6048778295516968, -0.917212724685669, 1.4236353635787964, -2.7374191284179688, 1.262568473815918, 0.05039351060986519, 1.4014308452606201, -1.4798834323883057, 1.2101829051971436, 1.2233542203903198, -1.6666061878204346, 1.1559476852416992, -2.5317161083221436, -2.502073287963867, 1.1674729585647583, -1.0200837850570679, 1.387496829032898, -1.4220365285873413, 1.429457187652588, -1.2241121530532837, 1.1438369750976562, -1.0779350996017456, -2.6816439628601074, 1.3514543771743774, -2.1452789306640625], [-0.02034175768494606, -0.010384208522737026, -0.05250655487179756, -0.040558818727731705, -0.03019380196928978, -0.03425416722893715, -0.0009607058018445969, -0.05850150063633919, -0.07713910937309265, -0.015375040471553802, -0.02844841778278351, -0.06300744414329529, 0.08054224401712418, 0.005484557710587978, 0.024248529225587845, -0.06737577170133591, -0.07968973368406296, 0.04101298004388809, -0.03978058695793152, 0.024410275742411613, 0.0023708678781986237, 0.026072397828102112, 0.07632189244031906, -0.0877445861697197, 0.03536412492394447, -0.059648625552654266, -0.05957810580730438, 0.038572877645492554, -0.03709619864821434, -0.016405273228883743, 0.0131066320464015, -0.00823338981717825, -0.09620888531208038, -0.09516716003417969, -0.0396166667342186, -0.01883522793650627, -0.03750985115766525, 0.06741194427013397, 0.05193890258669853, -0.03685048595070839, -0.07671227306127548, -0.05685430020093918, -0.00908944196999073, -0.008409653790295124, -0.08332676440477371, 0.056409869343042374, -0.07953105121850967, -0.06367023289203644, -0.01416595559567213, 0.06603670120239258, 0.015447568148374557, -0.06827452033758163, 0.04652492702007294, -0.005109016317874193, 0.054396502673625946, -0.07805144041776657, -0.009589756838977337, -0.07108797878026962, 0.03660900890827179, 0.04107093811035156, -0.06668776273727417, -0.058924369513988495, -0.0922403633594513, 0.005541778169572353, -0.011388487182557583, -0.048871781677007675, -0.023812443017959595, 0.006528894416987896, -0.031287532299757004, -0.05862485244870186, -0.05677418038249016, -0.08167853206396103, -0.0763932317495346, -0.013882271014153957, -0.0333692729473114, 0.03932026028633118, -0.06060054153203964, 0.02282704785466194, -0.0442998930811882, 0.05282922834157944, 0.023479534313082695, 0.048544809222221375, 0.011473248712718487, -0.0711696520447731, 0.022137988358736038, 0.06852936744689941, 0.002735154703259468, 0.009298047982156277, 0.047120459377765656, -0.08537013083696365, 0.061924684792757034, 0.004072976764291525, -0.07686091959476471, 0.0847698524594307, -0.08543911576271057, 0.032518599182367325, -0.08874574303627014, -0.04648503288626671, 0.06406797468662262, -0.09068776667118073, 0.06935891509056091, 0.08086748421192169, -0.004973496776074171, -0.06619945168495178, 0.06360475718975067, -0.03758838027715683, 0.02701001800596714, 0.055654555559158325, -0.07017192244529724, 0.04321622475981712, -0.0346810519695282, 0.002136967144906521, -0.06955166161060333, -0.08178988844156265, 0.024976853281259537, 0.02755609340965748, 0.03197893127799034, 0.05602627992630005, 0.018264397978782654, 0.03988334536552429, 0.06143425777554512, -0.07628380507230759, 0.046395666897296906, -0.041137032210826874, 0.00634890329092741, -0.05192000791430473, 0.054101068526506424, -0.08559214323759079], [-0.06960046291351318, -0.057573284953832626, -0.06853187829256058, 0.029502730816602707, -0.09735574573278427, 0.03190451115369797, 0.049862027168273926, -0.07133390754461288, 0.005678518675267696, 0.013822784647345543, 0.05747506767511368, -0.017186524346470833, -0.00888566393405199, -0.02481076307594776, -0.042847640812397, 0.081234410405159, -0.029101956635713577, 0.0053219422698020935, -0.07973027974367142, 0.04925898462533951, -0.049520254135131836, -0.03723091632127762, 0.0709339901804924, -0.08820845186710358, -0.07178627699613571, 0.06967005133628845, -0.08206822723150253, 0.0014718943275511265, -0.07459727674722672, -0.005882401019334793, 0.046426113694906235, 0.012204384431242943, -0.05410049855709076, -0.0637371763586998, -0.01797514408826828, -0.04933124780654907, -0.0295840036123991, -0.03867820277810097, 0.053276702761650085, 0.011274395510554314, 0.04562493786215782, -0.00447220029309392, -0.021192247048020363, -0.09093700349330902, -0.08694113790988922, -0.032066479325294495, 0.044052764773368835, -0.10127028822898865, -0.027605868875980377, -0.036499351263046265, -0.006546174641698599, -0.09509177505970001, 0.026543505489826202, 0.01899651624262333, -0.0016938415355980396, -0.0735401138663292, 0.04179023206233978, 0.0335584431886673, -0.07320832461118698, 0.03720951825380325, 0.06824276596307755, -0.05677597597241402, -0.02010965906083584, 0.016659941524267197, -0.015012148767709732, -0.058467697352170944, 0.07442331314086914, 0.03380207717418671, 0.08535315096378326, -0.008938799612224102, 0.00031478540040552616, 0.025328127667307854, 0.051362261176109314, -0.025619585067033768, 0.03515736386179924, -0.08671495318412781, -0.07876434922218323, -0.020050661638379097, -0.03941354155540466, 0.06344930827617645, 0.006249448284506798, -0.05567631125450134, 0.04676174744963646, 0.08551424741744995, -0.037316467612981796, -0.04500945657491684, -0.013993537053465843, 0.06936334073543549, 0.06077144667506218, -0.016067147254943848, 0.05435905605554581, 0.03144676238298416, 0.051635224372148514, -0.05883971229195595, -0.014913289807736874, -0.012432867661118507, -0.09287287294864655, -0.07260487973690033, 0.011926672421395779, 0.02212047204375267, -0.016064947471022606, -0.030127936974167824, -0.06915667653083801, 0.0829286128282547, 0.049318891018629074, -0.011919938027858734, -0.052763596177101135, -0.01578528806567192, 0.06909031420946121, -0.04380650445818901, -0.09014258533716202, -0.09452041983604431, -0.08467300981283188, -0.0051536159589886665, 0.012563095428049564, -0.027057675644755363, -0.03314925357699394, -0.06307654827833176, -0.0867379754781723, -0.09658300131559372, -0.028216702863574028, 0.0008966331370174885, -0.015904981642961502, -0.05096591264009476, 0.042928118258714676, 0.08431021869182587, 0.042766377329826355, -0.07187364995479584], [1.2479972839355469, -1.4941657781600952, -2.630648136138916, -2.85099196434021, -2.0980992317199707, -2.413262367248535, -2.577829599380493, 1.0310009717941284, -1.1689214706420898, 1.2456716299057007, 1.3691951036453247, 1.4694387912750244, -1.933421015739441, 1.457564353942871, 1.4538074731826782, -1.9263334274291992, -2.1696956157684326, 0.9865123629570007, -2.162247657775879, -2.4755077362060547, -1.8435258865356445, -0.0917167067527771, 1.5398197174072266, 1.2867563962936401, 1.1715294122695923, 1.6348090171813965, 1.654360055923462, -2.107593059539795, 1.3824927806854248, 1.2410387992858887, 1.5913095474243164, 1.5311181545257568, -1.5963749885559082, 1.1710795164108276, -2.2895290851593018, 1.1875439882278442, 1.4048118591308594, -2.110975980758667, -1.0584741830825806, 1.1975558996200562, 1.564263939857483, -1.1168454885482788, -1.2188010215759277, 1.3016903400421143, -1.6185787916183472, -2.1153390407562256, -0.45170217752456665, 1.6073923110961914, -1.5527257919311523, 1.6083672046661377, 1.2081177234649658, -2.4512107372283936, 1.5505157709121704, -1.3432177305221558, -0.8772246837615967, 1.3258577585220337, -0.9504844546318054, 1.3600879907608032, 0.3365495502948761, -1.6064324378967285, 1.2079499959945679, -2.1751418113708496, 1.757964849472046, -1.8157949447631836, 1.52042555809021, 1.2831523418426514, 0.9633016586303711, -0.3857114911079407, -2.464251756668091, 1.4985480308532715, 1.5925917625427246, -1.526518702507019, 1.7274373769760132, 1.4484895467758179, 0.0715523362159729, 0.8881356120109558, 1.4474050998687744, -1.1599810123443604, 1.2922115325927734, -0.08594798296689987, 1.303566336631775, -1.3253182172775269, 1.7139613628387451, 0.17416921257972717, 1.3443987369537354, 1.258884310722351, -1.13288152217865, -0.33596450090408325, -2.4342634677886963, -1.956050157546997, 1.5609370470046997, -1.6050924062728882, 1.6422476768493652, -0.8262256383895874, 1.6356438398361206, 1.2036504745483398, 1.381142258644104, -2.6495773792266846, 0.9188344478607178, 1.6782793998718262, 1.3238136768341064, 0.04145145043730736, -2.1986451148986816, -1.6265206336975098, -0.466073215007782, 1.5144590139389038, -2.9203224182128906, 1.5686967372894287, -0.0878019705414772, 1.6050161123275757, -1.1980904340744019, 1.2850384712219238, 1.7103005647659302, -1.212764024734497, 1.2899484634399414, -2.6845290660858154, -2.5547685623168945, 1.0012162923812866, -0.5939690470695496, 1.5130069255828857, -1.7160167694091797, 1.6897505521774292, -0.9391599893569946, 1.5316112041473389, -0.7061789035797119, -2.763256072998047, 1.4620201587677002, -1.9410080909729004], [-0.09218497574329376, -0.006269843317568302, -0.0760384052991867, 0.023860324174165726, -0.08379627764225006, 0.006172996014356613, -0.08733168989419937, -0.07837852090597153, -0.05729934573173523, -0.049260213971138, 0.0670352354645729, 0.005436531268060207, 0.04644070565700531, 0.07179921865463257, 0.05246778950095177, 0.07901059091091156, -0.07880434393882751, 0.036302972584962845, 0.05665190517902374, -0.0331287607550621, -0.0015593069838359952, 0.04201676696538925, 0.044666893780231476, 0.020363882184028625, -0.04029332846403122, 0.033306267112493515, -0.09373357892036438, 0.03000609017908573, 0.04587394371628761, 0.011514554731547832, 0.057963959872722626, 0.04739689826965332, 0.03997007757425308, 0.018715761601924896, 0.029895475134253502, 0.07165560871362686, -0.04307392239570618, -0.07261335849761963, -0.05385453253984451, -0.04237993061542511, -0.0035465918481349945, 0.027025315910577774, 0.07042281329631805, -0.07847926765680313, -0.08506760746240616, 0.043783292174339294, 0.03736927732825279, 0.018587451428174973, 0.04436054825782776, -0.07851061224937439, 0.005278955679386854, 0.0731288269162178, -0.08645778149366379, -0.08158012479543686, -0.07142972946166992, 0.02097228169441223, 0.028285887092351913, -0.06969037652015686, -0.06137899309396744, 0.0400908924639225, 0.060922957956790924, -0.03914066031575203, 0.0019020764157176018, -0.0848739966750145, -0.04168212413787842, 0.06366016715765, -0.04296711087226868, -0.08811074495315552, 0.0294156763702631, -0.023804666474461555, -0.017213458195328712, 0.02236976847052574, -0.08378078788518906, 0.00525128748267889, -0.02597839944064617, -0.0693906843662262, -0.014971359632909298, -0.0877716913819313, 0.07827892154455185, 0.036408618092536926, -0.04781947657465935, -0.08408153057098389, -0.055289868265390396, 0.04208003357052803, -0.02720002643764019, -0.027129728347063065, 0.04918721690773964, 0.028070790693163872, -0.06541397422552109, -0.016435079276561737, -0.039997417479753494, 0.042788438498973846, 0.029610730707645416, 0.03965938836336136, -0.05856825038790703, -0.07768420875072479, 0.01773088425397873, 0.0026000284124165773, -0.05621686577796936, -0.06840373575687408, 0.07046940922737122, -0.043886449187994, 0.025456422939896584, 0.06914503127336502, 0.041588857769966125, -0.007501695305109024, -0.0019676361698657274, 0.020253224298357964, -0.013191194273531437, -0.09694676846265793, -0.06418896466493607, -0.03619174286723137, -0.0747423842549324, -0.04656178131699562, -0.014136516489088535, -0.08632587641477585, -0.08243419229984283, -0.06207403540611267, -0.04227977991104126, -0.012268062680959702, -0.05011921003460884, -0.08535093814134598, 0.0714704841375351, 0.059411533176898956, -0.04392766207456589, 0.04053870588541031, -0.07907158881425858, 0.0738440454006195], [-0.03241588547825813, -0.08785038441419601, -0.06350286304950714, 0.052082449197769165, 0.06432662904262543, 0.005995915737003088, -0.056355614215135574, 0.03410973772406578, -0.041339125484228134, -0.007087836042046547, 0.03691438212990761, -0.005620999727398157, 0.06755363941192627, 0.06409784406423569, -0.04722356051206589, -0.022044412791728973, -0.06768013536930084, 0.06202445179224014, -0.07681853324174881, 0.08790770173072815, 0.03787936270236969, 0.07590768486261368, 0.01154133677482605, -0.023206815123558044, -0.04882829636335373, -0.022075064480304718, 0.08415140956640244, -0.04604750871658325, -0.04467417299747467, -0.041577376425266266, 0.021604714915156364, 0.037027761340141296, 0.07111694663763046, 0.03625459969043732, 0.02649637497961521, 0.06952829658985138, 0.07787992060184479, 0.02876652032136917, -0.07527647167444229, -0.058892183005809784, -0.05329351872205734, 0.08011949062347412, 0.05366120487451553, -0.0916810929775238, -0.0017260820604860783, -0.03119589574635029, 0.022053580731153488, 0.008275015279650688, -0.012725292704999447, 0.0494517907500267, -0.08519604802131653, -0.024891527369618416, -0.0773194208741188, -0.07050135731697083, 0.024531256407499313, -0.018400996923446655, -0.07895359396934509, -0.004578028805553913, 0.08191446214914322, -0.06378419697284698, -0.05610781908035278, -0.02147383987903595, 0.005347955971956253, 0.07899724692106247, 0.002499029040336609, 0.06854427605867386, -0.07674427330493927, -0.010785666294395924, -0.06838048249483109, -0.08772923797369003, 0.0007013166323304176, 0.036442503333091736, 0.01647479087114334, -0.08061133325099945, -0.02951553277671337, 0.0666034072637558, -0.05840613320469856, -0.039450567215681076, -0.056626178324222565, -0.06704477965831757, 0.04763998091220856, 0.02345101162791252, 0.05055295675992966, 0.06463588774204254, -0.0757804811000824, -0.06629841029644012, -0.01798424869775772, 0.017823638394474983, -0.001065156189724803, 0.07625557482242584, -0.06876092404127121, 0.08589709550142288, -0.07333977520465851, 0.03337199240922928, -0.08983339369297028, 0.02960219606757164, -0.09329686313867569, 0.06368926167488098, 0.07187028974294662, 0.02276696264743805, -0.07622642815113068, -0.08296886086463928, -0.058691877871751785, -0.04390030354261398, -0.057931359857320786, -0.0028806524351239204, 0.022716201841831207, -0.09190881997346878, -0.010869977995753288, -0.05607982724905014, 0.056266188621520996, -0.015622413717210293, -0.021441802382469177, -0.08678597211837769, -0.07424169778823853, -0.015664834529161453, 0.02971491776406765, -0.043791402131319046, -0.08318573236465454, -0.005867074243724346, 0.019848156720399857, 0.006960188038647175, -0.06459134817123413, -0.04991989582777023, 0.048202063888311386, -0.0604439340531826, -0.0518074631690979, 0.03507078066468239], [-0.1009356677532196, -0.02623005211353302, 0.017733033746480942, -0.04813743382692337, -0.08784955739974976, -0.09151460975408554, 0.08545807749032974, -0.08836537599563599, 0.06292153894901276, 0.015353466384112835, 0.023062456399202347, -0.07380781322717667, 0.069960817694664, -0.08458960056304932, -0.033331163227558136, -0.0835539847612381, 0.02442849986255169, 0.04978460818529129, 0.0601450577378273, 0.06503482162952423, -0.012620549649000168, -0.03357497975230217, -0.027666229754686356, 0.0209323950111866, -0.07863914221525192, 0.07739193737506866, 0.06217382103204727, 0.02641245163977146, -0.08900474011898041, -0.014336547814309597, -0.0028831204399466515, -0.024607673287391663, -0.06472234427928925, -0.0024457345716655254, 0.06368617713451385, 0.051465071737766266, 0.06482455879449844, 0.05786992982029915, 0.05896477773785591, -0.05683313310146332, -0.05887070298194885, 0.04076895862817764, -0.041486114263534546, -0.012289902195334435, -0.02468390204012394, -0.00020977540407329798, 0.0358765572309494, -0.018559973686933517, 0.04971157759428024, 0.06813125312328339, 0.005183783359825611, -0.08138783276081085, -0.08540654927492142, 0.05432773381471634, -0.0766531229019165, -0.08202002197504044, -0.07767584919929504, -0.020212620496749878, 0.03865483030676842, -0.06888914108276367, -0.005904608406126499, -0.018291130661964417, -0.08701381087303162, -0.06534220278263092, 0.05896777659654617, -0.08872763812541962, -0.087852343916893, 0.02989325113594532, 0.02804734744131565, -0.013161138631403446, -0.026492470875382423, 0.04071249067783356, 0.018965115770697594, -0.0884651467204094, -0.002491753315553069, -0.009991603903472424, -0.02707577496767044, -0.001237207092344761, 0.025330618023872375, 0.027489596977829933, 0.019271016120910645, -0.09191592037677765, 0.05770227685570717, 0.06580696254968643, -0.015633193776011467, -0.06957733631134033, 0.022788111120462418, 0.00546955456957221, -0.06632671505212784, -0.08321220427751541, 0.06483885645866394, -0.03438582271337509, -0.028307802975177765, -0.015430085361003876, 0.0795508623123169, -0.06850944459438324, -0.05173037201166153, 0.046632688492536545, -0.03345393389463425, -0.05327313393354416, 0.07298031449317932, -0.03500974178314209, 0.04602691903710365, 0.07286658138036728, 0.03676070272922516, 0.0340629518032074, -0.07950122654438019, 0.060930103063583374, -0.02858594059944153, 0.04486200958490372, 0.06597456336021423, -0.005979353561997414, 0.04369685426354408, 0.05757366120815277, -0.003412664867937565, 0.0724911317229271, -0.013205913826823235, 0.039142757654190063, -0.08802997320890427, 0.03784830868244171, 0.014653237536549568, 0.015680156648159027, -0.05825293809175491, 0.03520183265209198, -0.047719020396471024, 0.0734853446483612, 0.023283636197447777, -0.012206995859742165], [1.438199520111084, -1.7396628856658936, -2.8746068477630615, -2.6069822311401367, -2.3572330474853516, -2.6632094383239746, -2.4160430431365967, 1.1901453733444214, -0.8625556230545044, 1.4276589155197144, 1.4222960472106934, 1.3120739459991455, -2.179783344268799, 1.4505741596221924, 1.143139123916626, -1.8334858417510986, -2.0284385681152344, 1.3392765522003174, -2.356618642807007, -2.650485038757324, -2.102372407913208, -0.4876949191093445, 1.3394798040390015, 1.3616141080856323, 1.38057541847229, 1.142556071281433, 1.2323426008224487, -1.75277578830719, 1.3213728666305542, 1.4356462955474854, 1.3048791885375977, 1.3797529935836792, -1.899735689163208, 1.485723614692688, -2.348701238632202, 1.428794026374817, 1.4989778995513916, -1.910693883895874, -1.4231599569320679, 1.2900208234786987, 1.4449421167373657, -1.39088773727417, -0.8926354050636292, 1.4716812372207642, -1.6685593128204346, -2.3167409896850586, -0.8639985918998718, 1.3832321166992188, -1.2574856281280518, 1.3619951009750366, 1.3771775960922241, -2.6142802238464355, 1.320294737815857, -1.6528884172439575, -1.2051303386688232, 1.2476240396499634, -0.5591433644294739, 1.4117313623428345, -0.084035724401474, -1.9419523477554321, 1.1040875911712646, -2.480384111404419, 1.5432575941085815, -2.0767483711242676, 1.454441785812378, 1.329078197479248, 1.363769292831421, -0.07805725932121277, -2.333777904510498, 1.4091229438781738, 1.358627438545227, -1.6829657554626465, 1.391208291053772, 1.3897689580917358, -0.044381145387887955, 1.151323914527893, 1.4420722723007202, -1.4157342910766602, 1.5037175416946411, -0.09340003877878189, 1.4158594608306885, -1.5824737548828125, 1.3840628862380981, 0.1281491369009018, 1.4168366193771362, 1.4157828092575073, -1.5618430376052856, -0.36940792202949524, -2.7044687271118164, -2.0368435382843018, 1.3467732667922974, -1.4367640018463135, 1.3406497240066528, -0.42072761058807373, 1.4398362636566162, 1.1222460269927979, 1.3706945180892944, -2.5462121963500977, 0.9761624336242676, 1.4981763362884521, 1.2372686862945557, -0.02504400536417961, -2.084193468093872, -1.6912654638290405, -0.8876598477363586, 1.5261967182159424, -2.669555425643921, 1.2829675674438477, -0.061837054789066315, 1.4887468814849854, -1.418784499168396, 1.316934585571289, 1.1929157972335815, -1.643262505531311, 1.169445514678955, -2.3660659790039062, -2.414877414703369, 1.3103810548782349, -1.0163756608963013, 1.3600794076919556, -1.412431240081787, 1.4986681938171387, -1.3003748655319214, 1.3829424381256104, -1.0579103231430054, -2.5426299571990967, 1.4227145910263062, -2.1669516563415527], [1.2156237363815308, -1.6171902418136597, -2.7170257568359375, -2.898339033126831, -2.2251946926116943, -2.468250274658203, -2.5763866901397705, 0.9292431473731995, -0.9981332421302795, 1.0718320608139038, 1.2775050401687622, 1.3438076972961426, -2.0432071685791016, 1.3163461685180664, 1.2855678796768188, -1.8279844522476196, -2.072087526321411, 1.083326816558838, -2.3773446083068848, -2.5573694705963135, -2.0498757362365723, -0.37665390968322754, 1.2100332975387573, 1.1755439043045044, 1.0581443309783936, 1.2369965314865112, 1.3472461700439453, -1.966521143913269, 1.1903624534606934, 1.2823512554168701, 1.2370084524154663, 1.2408044338226318, -1.8784562349319458, 1.2623262405395508, -2.3672196865081787, 1.2005854845046997, 1.2633798122406006, -2.020319938659668, -1.272791862487793, 1.0155830383300781, 1.3362668752670288, -1.301210641860962, -1.2384430170059204, 1.1640489101409912, -1.5833603143692017, -2.23817777633667, -0.7810948491096497, 1.2868432998657227, -1.406080722808838, 1.4672080278396606, 1.1806843280792236, -2.6473758220672607, 1.3856322765350342, -1.606719970703125, -1.0633078813552856, 1.2586480379104614, -0.9821261763572693, 1.266953468322754, -0.053033553063869476, -1.8173894882202148, 1.0028715133666992, -2.3701934814453125, 1.4658901691436768, -2.0573887825012207, 1.3162919282913208, 1.3004591464996338, 0.9737920165061951, -0.4091031849384308, -2.4829721450805664, 1.311703085899353, 1.22726571559906, -1.7754191160202026, 1.3795840740203857, 1.241246223449707, 0.042896777391433716, 0.9190118908882141, 1.2487679719924927, -1.4770153760910034, 1.2103161811828613, -0.01532625500112772, 1.2632280588150024, -1.5826901197433472, 1.32685124874115, 0.00881847646087408, 1.241491436958313, 1.124345302581787, -1.5094914436340332, -0.42778587341308594, -2.650228500366211, -2.0450615882873535, 1.2364425659179688, -1.506149172782898, 1.4185543060302734, -0.6889697909355164, 1.4016776084899902, 1.0501495599746704, 1.29643714427948, -2.7127113342285156, 0.9938463568687439, 1.4805920124053955, 1.188851237297058, 0.08819384127855301, -2.1171343326568604, -1.71225106716156, -0.7459484934806824, 1.3824682235717773, -2.718069314956665, 1.4380042552947998, 0.03223072737455368, 1.434620976448059, -1.325042963027954, 1.2140588760375977, 1.2687658071517944, -1.40750253200531, 0.997269332408905, -2.6430394649505615, -2.575136184692383, 1.0442394018173218, -0.8513330817222595, 1.3071757555007935, -1.6016627550125122, 1.4981637001037598, -1.1457433700561523, 1.2358802556991577, -0.8172213435173035, -2.7207281589508057, 1.3776003122329712, -2.013529062271118], [-0.04074702039361, -0.09004983305931091, -0.07578955590724945, 0.008458967320621014, 0.020472366362810135, -0.043935101479291916, 0.009406143799424171, -0.07364599406719208, -0.06850459426641464, 0.03990347310900688, -0.08958268910646439, -0.06742919236421585, 0.030118420720100403, 0.052033670246601105, -0.0028016120195388794, -0.06236334145069122, 0.005051152314990759, -0.031599100679159164, -0.016867419704794884, -0.04893564432859421, -0.08099275082349777, 0.022726744413375854, -0.06724507361650467, 0.053139034658670425, -0.08924449980258942, 0.007906230166554451, -0.004683748818933964, -0.08682618290185928, 0.06523653119802475, 0.04536815732717514, 0.06308642029762268, -0.06802849471569061, 0.010847936384379864, -0.04206234961748123, -0.011284109205007553, -0.023778246715664864, 0.01973406970500946, -0.007772848010063171, 0.035334110260009766, -0.06073660030961037, 0.06099291518330574, -0.005323614459484816, 0.040523823350667953, -0.04860620200634003, 0.03241702541708946, 0.005864280741661787, 0.03584088012576103, -0.04519004002213478, 0.05459349602460861, -0.07773605734109879, -0.02617776021361351, -0.01164141483604908, -0.046640992164611816, 0.004199117422103882, 0.03339933976531029, 0.0034597821068018675, -0.08187225461006165, -0.051762767136096954, -0.03643371909856796, 0.03558649495244026, 0.04087952524423599, 0.05709781125187874, -0.031243111938238144, -0.09755996614694595, -0.060818713158369064, 0.06508290767669678, 0.01270073652267456, 0.03093560039997101, -0.06865452975034714, 0.07062558084726334, -0.06554527580738068, 0.0594220906496048, 0.02110745757818222, 0.060398735105991364, 0.018212273716926575, 0.03007296472787857, -0.08724767714738846, -0.02361118607223034, 0.01088463794440031, 0.0035002008080482483, -0.03818435221910477, -0.0898832157254219, -0.06370054185390472, -0.054061561822891235, -0.08964730054140091, 0.07565244287252426, -0.0752650573849678, -0.0574924536049366, -0.06390680372714996, 0.011953777633607388, -0.03492313623428345, -0.056649621576070786, 0.015339238569140434, 0.02146279811859131, 0.017094019800424576, 0.013090171851217747, -0.030315861105918884, -0.08268385380506516, 0.058542340993881226, 0.015291840769350529, -0.06289603561162949, 0.0430975966155529, -0.04484819620847702, -0.027558591216802597, 0.05372556671500206, 0.004871184937655926, -0.06593049317598343, 0.028623243793845177, 0.07583684474229813, 0.026577293872833252, 0.04710453003644943, 0.0563376285135746, -0.005327653605490923, -0.04760751500725746, -0.08471506088972092, -0.08074904978275299, -0.06086820363998413, -0.027193576097488403, -0.013980817049741745, 0.04932907596230507, 0.053861089050769806, -0.024242937564849854, -0.04195496439933777, 0.03419133648276329, -0.0532555989921093, 0.08125472068786621, -0.0009449943900108337, 0.02348506450653076], [0.012454044073820114, -0.08907227218151093, -0.05435359477996826, -0.059356868267059326, -0.005728073418140411, 0.008848962374031544, -0.08166006207466125, -0.060042236000299454, -0.0038285322953015566, -0.05971841514110565, -0.12408524751663208, -0.05595792084932327, 0.02976386621594429, 0.022236138582229614, -0.08914953470230103, 0.030734602361917496, -0.09332899749279022, -0.043155841529369354, -0.08821660280227661, 0.04628845304250717, 0.01909375749528408, 0.05401143431663513, -0.07142865657806396, 0.07612888514995575, 0.005462020635604858, 0.07645893841981888, 0.01920245960354805, 0.04245397448539734, 0.0035961680114269257, 0.061695463955402374, 0.026667414233088493, -0.03487493842840195, -0.0781424269080162, -0.035134196281433105, -0.06213902309536934, 0.06838591396808624, 0.04366379231214523, -0.062234725803136826, -0.034490834921598434, 0.03927300125360489, -0.08934176713228226, -0.02832096442580223, -0.0018377527594566345, -0.004398770164698362, -0.06514725089073181, 0.007413065526634455, 0.06504789739847183, -0.05577605217695236, 0.06353307515382767, 0.03222233057022095, -0.010993980802595615, 0.005545433610677719, 0.05562495067715645, -0.07136712968349457, 0.03582245111465454, 0.09237635135650635, -0.03792980685830116, -0.05088303983211517, -0.06096579134464264, 0.012674633413553238, 0.006948351394385099, -0.06918536871671677, -0.055878035724163055, 0.06637183576822281, -0.10557014495134354, -0.08478178083896637, -0.07510799914598465, 0.008046211674809456, 0.023491039872169495, -0.05829043686389923, 0.00891849398612976, 0.051987677812576294, -0.041216813027858734, -0.0891847088932991, -0.056612279266119, 0.04483012855052948, 0.03040052205324173, 0.015095322392880917, -0.09930700808763504, -0.00919276475906372, -0.09417367726564407, -0.041055839508771896, -0.08189351111650467, 0.060776352882385254, 0.05360989272594452, -0.01674923673272133, -0.0324862077832222, -0.06697671860456467, -0.04617691785097122, 0.02888145111501217, -0.08818862587213516, -0.03236854076385498, -0.008896902203559875, 0.07482333481311798, -0.0033006081357598305, 0.05246666073799133, 0.04475795105099678, 0.05101797357201576, 0.035521846264600754, 0.03363418206572533, -0.002561521716415882, -0.06301902234554291, -0.08760406821966171, -0.003877260722219944, 0.06883572041988373, -0.07073119282722473, -0.05712037533521652, 0.043136660009622574, 0.029684003442525864, -0.06412289291620255, -0.031048398464918137, 0.06633076816797256, -0.03249991685152054, -0.07455039024353027, 0.06107974797487259, 0.005240343511104584, 0.015342051163315773, 0.029949959367513657, -0.0815071240067482, 0.04833879694342613, -0.06666786968708038, -0.05467259883880615, 0.07181129604578018, 0.014921996742486954, -0.0791805237531662, 0.01795908808708191, -0.010395679622888565, -0.018080512061715126], [3.8371522426605225, -1.4350593090057373, -2.9300026893615723, 2.045464038848877, -3.3964648246765137, -2.4819018840789795, 3.2711803913116455, 2.6185736656188965, 3.625600576400757, 3.9114303588867188, 2.5785224437713623, 1.1229368448257446, -1.24649977684021, 1.6984977722167969, 0.20160169899463654, 0.7854738235473633, 2.375885486602783, 4.388340473175049, -3.185810089111328, -2.838935375213623, -3.359736680984497, -3.1952290534973145, 2.3110339641571045, 2.767828941345215, 3.4988229274749756, -1.170915126800537, -0.41004040837287903, 2.9006881713867188, 2.718893527984619, 3.6660492420196533, 0.5075367093086243, 1.3631378412246704, -3.434767484664917, 3.8475422859191895, -1.7933660745620728, 4.01956844329834, 2.2058708667755127, 1.7888697385787964, -2.9941163063049316, 1.8641374111175537, 1.7729778289794922, -2.841330051422119, 4.058881759643555, 3.4157071113586426, -1.2356200218200684, -1.6292095184326172, -2.6032519340515137, 1.350386381149292, 3.2488770484924316, 0.3674502670764923, 2.0042648315429688, -3.024566173553467, 0.8589493632316589, -2.8670918941497803, -3.1562514305114746, 0.9621201753616333, 4.810873031616211, 2.698157548904419, -2.1892123222351074, -3.344099283218384, 1.2696566581726074, -3.3722434043884277, 0.954312801361084, -3.1771605014801025, 1.2877939939498901, 2.571453332901001, 4.303881645202637, 4.845942974090576, 0.8925148844718933, 1.2232551574707031, 0.9626583456993103, -2.2345285415649414, -0.10512326657772064, 2.8236591815948486, -0.024149974808096886, 3.4052467346191406, 2.795149087905884, -2.4751482009887695, 3.7424070835113525, -0.0003367988392710686, 2.2855653762817383, -3.4025189876556396, -0.08420603722333908, -0.7819582223892212, 2.9523987770080566, 3.420701503753662, -3.333591938018799, -0.776881754398346, -2.988186836242676, -1.0135111808776855, 1.309537649154663, 0.5261996388435364, 0.15667398273944855, 5.056757926940918, 0.7713857889175415, 0.5354620218276978, 2.3294029235839844, 1.032712459564209, 1.0948283672332764, 1.4138765335083008, 2.55074143409729, 0.05131494626402855, 1.1679620742797852, -1.450519323348999, -2.687166213989258, 2.222290515899658, 1.7845650911331177, -0.3734106421470642, 0.05351217836141586, 2.4039556980133057, -1.757147192955017, 2.8637897968292236, -0.7114075422286987, -3.4710652828216553, 1.3891409635543823, 2.2582154273986816, 3.087052583694458, 4.457632064819336, -3.3322761058807373, 1.8193415403366089, 3.863546133041382, 0.6138842701911926, -2.9678428173065186, 0.9197921752929688, -2.8085367679595947, 2.169682502746582, 2.6354897022247314, -3.0552568435668945], [1.0318914651870728, -1.6213152408599854, -2.708876371383667, -2.8783061504364014, -2.0526890754699707, -2.3701746463775635, -2.7435927391052246, 0.9407419562339783, -1.1155662536621094, 1.2101757526397705, 1.253196358680725, 1.4204050302505493, -2.0486233234405518, 1.5056862831115723, 1.3200042247772217, -1.8621729612350464, -2.2348132133483887, 0.9627336263656616, -2.165243625640869, -2.3972580432891846, -1.7766488790512085, -0.045985911041498184, 1.40470290184021, 1.2063472270965576, 1.050521731376648, 1.5776747465133667, 1.676803469657898, -2.0077741146087646, 1.2640511989593506, 1.1335716247558594, 1.4903857707977295, 1.3954390287399292, -1.7117563486099243, 1.1143338680267334, -2.2686805725097656, 1.1418646574020386, 1.4486651420593262, -2.1207096576690674, -1.1303942203521729, 1.1505059003829956, 1.4709566831588745, -1.1102228164672852, -1.3198210000991821, 1.1835564374923706, -1.6351197957992554, -2.1527435779571533, -0.4483148455619812, 1.4104619026184082, -1.5777002573013306, 1.669525146484375, 1.1362686157226562, -2.4879300594329834, 1.4321274757385254, -1.4246315956115723, -0.796869695186615, 1.31571626663208, -1.0763062238693237, 1.2277554273605347, 0.3071487843990326, -1.6578456163406372, 1.21401846408844, -2.1597819328308105, 1.5865046977996826, -1.7365763187408447, 1.4925334453582764, 1.299053430557251, 1.0414769649505615, -0.504675030708313, -2.579864263534546, 1.5853878259658813, 1.4878463745117188, -1.631168246269226, 1.6805120706558228, 1.2182964086532593, 0.03336653113365173, 0.9259790182113647, 1.4753026962280273, -1.3075685501098633, 1.2309855222702026, -0.05047203227877617, 1.307638168334961, -1.339022159576416, 1.6161996126174927, 0.13286884129047394, 1.3376318216323853, 1.1314051151275635, -1.2350302934646606, -0.39979538321495056, -2.517698287963867, -1.8949224948883057, 1.4061998128890991, -1.5691291093826294, 1.6817939281463623, -0.9055283665657043, 1.4808902740478516, 1.2457563877105713, 1.389682650566101, -2.680302381515503, 1.0624797344207764, 1.4525818824768066, 1.2163008451461792, 0.06694649159908295, -2.2143542766571045, -1.5614198446273804, -0.5058369636535645, 1.456924557685852, -2.834688186645508, 1.535839319229126, -0.015560436993837357, 1.4871071577072144, -1.2775663137435913, 1.3941552639007568, 1.5344007015228271, -1.1475296020507812, 1.1641536951065063, -2.592564105987549, -2.582643508911133, 0.9287343621253967, -0.6015588641166687, 1.5084781646728516, -1.6477491855621338, 1.6477875709533691, -0.9254931807518005, 1.4291576147079468, -0.6253308653831482, -2.8645882606506348, 1.4432584047317505, -1.908077597618103], [1.2668195962905884, -1.815104603767395, -2.822727918624878, -2.803375482559204, -2.4210164546966553, -2.686401128768921, -2.404630422592163, 1.1567792892456055, -0.9578179717063904, 1.228569507598877, 1.291910171508789, 1.2038060426712036, -2.2322702407836914, 1.343953251838684, 1.1426640748977661, -1.8725574016571045, -2.052557945251465, 1.2138911485671997, -2.4893176555633545, -2.711397647857666, -2.1467697620391846, -0.4182909429073334, 1.3294939994812012, 1.2989246845245361, 1.339931607246399, 1.0298881530761719, 1.2919094562530518, -1.8072632551193237, 1.325613021850586, 1.4380391836166382, 1.2745375633239746, 1.36512291431427, -2.023995876312256, 1.2985759973526, -2.4261648654937744, 1.2775079011917114, 1.4303345680236816, -1.9584128856658936, -1.4105116128921509, 1.1330140829086304, 1.4002019166946411, -1.3723859786987305, -0.982964277267456, 1.4578803777694702, -1.728501796722412, -2.2054710388183594, -0.8373263478279114, 1.338117241859436, -1.4062012434005737, 1.301005244255066, 1.3455947637557983, -2.7477786540985107, 1.2659178972244263, -1.7204958200454712, -1.20508873462677, 1.3555952310562134, -0.763607382774353, 1.402585506439209, -0.10613630712032318, -1.9726784229278564, 1.0857948064804077, -2.4321911334991455, 1.449607014656067, -2.1582841873168945, 1.3168340921401978, 1.417847990989685, 1.286745309829712, -0.18135879933834076, -2.3356516361236572, 1.3968913555145264, 1.2885091304779053, -1.858976125717163, 1.1897766590118408, 1.2558006048202515, -0.04554683342576027, 1.0575546026229858, 1.423439383506775, -1.506101369857788, 1.304197072982788, -0.045671749860048294, 1.3239854574203491, -1.6690783500671387, 1.2711302042007446, 0.030491245910525322, 1.2855314016342163, 1.2525880336761475, -1.5829453468322754, -0.3212164342403412, -2.738962411880493, -2.1813721656799316, 1.2933505773544312, -1.5807286500930786, 1.3577324151992798, -0.4638576805591583, 1.2735942602157593, 0.9736491441726685, 1.4325544834136963, -2.5910680294036865, 1.001230239868164, 1.4369958639144897, 1.182315468788147, -0.01012682169675827, -2.045445680618286, -1.7696654796600342, -0.9528916478157043, 1.3674260377883911, -2.785187244415283, 1.2339953184127808, 0.038709286600351334, 1.4468711614608765, -1.5388154983520508, 1.1900694370269775, 1.1914138793945312, -1.6522243022918701, 1.0741796493530273, -2.420649528503418, -2.521535634994507, 1.1793739795684814, -0.9878549575805664, 1.3009965419769287, -1.4316104650497437, 1.4212546348571777, -1.2617746591567993, 1.2513848543167114, -1.1084330081939697, -2.5700299739837646, 1.3051109313964844, -2.235828161239624], [-0.04767070338129997, 0.002157769165933132, 0.03253611549735069, -0.012323749251663685, 0.06308506429195404, -0.04760678857564926, 0.01046889740973711, 0.016283711418509483, -0.0044562495313584805, -0.05258439481258392, -0.0022047488018870354, 0.05294925346970558, 0.06030862405896187, -0.048215508460998535, 0.0325351245701313, 0.07813498377799988, -0.045556243509054184, 0.045464321970939636, 0.04843557998538017, -0.06666427850723267, -0.04068808630108833, 0.055269282311201096, -0.008061397820711136, 0.05104979872703552, -0.019776687026023865, 0.07689020037651062, 0.024644020944833755, -0.0543544702231884, 0.06417109072208405, 0.03887693211436272, -0.07997220009565353, -0.06367696821689606, 0.05023134872317314, -0.03495440632104874, -0.03244099020957947, -0.0966377854347229, 0.0366828478872776, -0.04766107723116875, -0.09340756386518478, -0.08810137212276459, 0.025717224925756454, 0.020014993846416473, 0.07725431770086288, -0.01722358725965023, 0.059895843267440796, -0.007557221222668886, 0.03214706853032112, 0.05246220529079437, -0.012841101735830307, 0.04069637879729271, -0.026162512600421906, -0.046609703451395035, 0.03738102689385414, 0.06546034663915634, -0.08093194663524628, 0.08753057569265366, -0.08128787577152252, -0.00938162300735712, 0.07553786039352417, -0.08278188854455948, -0.06128250062465668, -0.09171982854604721, -0.07607796043157578, -0.008413191884756088, -0.07783553004264832, -0.036242932081222534, 0.03691965341567993, -0.024490343406796455, -0.07282735407352448, -0.017731091007590294, -0.0018787188455462456, 0.010606997646391392, -0.039389658719301224, -0.020652364939451218, 0.07361166924238205, -0.09406562149524689, -0.07303765416145325, -0.030454643070697784, -0.09515341371297836, 0.08237900584936142, -0.050253976136446, 0.05655979365110397, -0.002475823275744915, 0.01122197788208723, -0.018196430057287216, -0.002727125771343708, -0.04543978348374367, 0.07544677704572678, 0.013666328974068165, -0.02694411762058735, 0.04166664183139801, 0.03470068424940109, 0.03938128054141998, 0.024955421686172485, -0.07920999825000763, 0.0040943920612335205, -0.07079862803220749, -0.05477661266922951, 0.06202137470245361, -0.07476110011339188, 0.0013543087989091873, -0.08367758989334106, -0.016617976129055023, -0.008027120493352413, -0.06385044008493423, 0.022405948489904404, -0.028177201747894287, -0.06636277586221695, -0.0630178228020668, 0.0651661604642868, -0.04559633135795593, -0.08467353135347366, -0.014696527272462845, -0.039849162101745605, -0.04695857688784599, -0.06725984811782837, -0.011222188360989094, -0.08349800109863281, -0.06947619467973709, -0.09597323834896088, -0.0229230597615242, -0.10235773026943207, 0.06053628772497177, -0.04359852150082588, -0.026821281760931015, -0.05760358273983002, -0.07420265674591064, -0.0740356519818306], [1.241509199142456, -1.7706146240234375, -2.786259651184082, -2.702380657196045, -2.435289144515991, -2.676783323287964, -2.4227497577667236, 1.1392415761947632, -0.8555427193641663, 1.2668923139572144, 1.2799551486968994, 1.322324514389038, -2.0939643383026123, 1.198803186416626, 0.9847800731658936, -1.8687022924423218, -1.972935676574707, 1.2054400444030762, -2.4526262283325195, -2.7550113201141357, -2.1616437435150146, -0.636847198009491, 1.2577612400054932, 1.2969921827316284, 1.2277443408966064, 0.9447949528694153, 1.2195724248886108, -1.744099497795105, 1.312846302986145, 1.2854158878326416, 1.2660080194473267, 1.2328194379806519, -2.1378955841064453, 1.2748568058013916, -2.320622682571411, 1.2614213228225708, 1.422563910484314, -1.9042339324951172, -1.497981071472168, 1.1937406063079834, 1.4401119947433472, -1.3889116048812866, -0.9596400856971741, 1.29372239112854, -1.6327413320541382, -2.226452112197876, -0.953449010848999, 1.2956621646881104, -1.3645504713058472, 1.2044135332107544, 1.2975494861602783, -2.7902028560638428, 1.202920913696289, -1.7688976526260376, -1.2834731340408325, 1.2001960277557373, -0.7102853655815125, 1.3387188911437988, -0.22145110368728638, -1.9563204050064087, 0.960008978843689, -2.5541839599609375, 1.2868868112564087, -2.2270567417144775, 1.2373322248458862, 1.330315351486206, 1.3006820678710938, -0.05073803663253784, -2.343005895614624, 1.393393874168396, 1.1499907970428467, -1.8223657608032227, 1.1549992561340332, 1.2993085384368896, -0.006722085177898407, 1.0608532428741455, 1.3127248287200928, -1.6157170534133911, 1.392417311668396, 0.07002189010381699, 1.4112699031829834, -1.723305106163025, 1.2931013107299805, 0.09786573052406311, 1.368369460105896, 1.3062129020690918, -1.568642497062683, -0.4353829026222229, -2.6993770599365234, -2.0265650749206543, 1.1879442930221558, -1.4454797506332397, 1.3191179037094116, -0.5509478449821472, 1.3063547611236572, 1.0142054557800293, 1.4005300998687744, -2.633077621459961, 0.9925276637077332, 1.3178937435150146, 1.1241861581802368, 0.09086516499519348, -2.008183717727661, -1.6360654830932617, -0.8899354338645935, 1.4064936637878418, -2.682668685913086, 1.1341549158096313, -0.011751605197787285, 1.438563346862793, -1.4136066436767578, 1.2172002792358398, 1.184138298034668, -1.6421685218811035, 1.143990397453308, -2.3596391677856445, -2.390496015548706, 1.2980000972747803, -1.112245798110962, 1.2623741626739502, -1.3932056427001953, 1.2536437511444092, -1.3867939710617065, 1.102028727531433, -1.1515718698501587, -2.654674530029297, 1.413638949394226, -2.249311685562134], [0.8586897253990173, 0.05026977136731148, 0.07636404037475586, 2.7502338886260986, -0.032823361456394196, -0.07844125479459763, 2.6117796897888184, 0.12297924607992172, 1.5122356414794922, 1.0052978992462158, 0.5831506848335266, -0.38744333386421204, -0.07757406681776047, 0.13837605714797974, -0.8426088690757751, 2.233351707458496, 2.335588216781616, 1.0365705490112305, 0.4050835371017456, 0.2979358732700348, 0.013624204322695732, -0.7894522547721863, 0.32975736260414124, 0.3847350776195526, 0.7815098166465759, -3.8021910190582275, -2.6932172775268555, 2.1932363510131836, 0.9078832864761353, 0.8240695595741272, -0.735166072845459, -0.034957677125930786, -0.15034307539463043, 0.8336930274963379, 0.2927197813987732, 0.8830283284187317, 0.3623141944408417, 2.3104536533355713, -0.18173961341381073, -0.005477323196828365, 0.03288948908448219, 0.3326178789138794, 1.703033685684204, 0.755480945110321, 0.09673146903514862, 0.42916345596313477, -0.25410205125808716, -0.09611215442419052, 1.7944164276123047, -1.0493825674057007, -0.23910574615001678, 0.2646664083003998, -0.563139796257019, -0.0024009912740439177, 0.2647951543331146, -0.438101202249527, 1.605521321296692, 0.4114437997341156, -0.8775394558906555, 0.43724337220191956, 0.41499045491218567, 0.42696741223335266, -0.3551432490348816, -0.018341561779379845, -0.2157132923603058, 0.5036812424659729, 1.0495280027389526, 1.3591514825820923, 2.5403695106506348, -0.20282620191574097, -0.3267441987991333, -0.10925129055976868, -2.102142333984375, 0.5029872059822083, -0.07245347648859024, 0.6087819933891296, 0.6799529194831848, -0.06488768756389618, 0.805169939994812, 0.05369553342461586, 0.1337459683418274, -0.31821006536483765, -1.9251106977462769, -0.4393364489078522, 0.6012418866157532, 0.6968870162963867, 0.2548978328704834, 0.06070355325937271, 0.12225841730833054, 0.26083922386169434, -0.11662057042121887, 1.789049506187439, -1.6537989377975464, 1.6251095533370972, -0.5163726806640625, -0.20580123364925385, 0.35902491211891174, 2.7340688705444336, -0.14217622578144073, -0.11541225016117096, 0.7975351214408875, 0.0723615363240242, 2.4288854598999023, -0.07100599259138107, -0.37769240140914917, 0.3044894337654114, 2.7017881870269775, -2.3270671367645264, 0.024849023669958115, 0.38479694724082947, 0.05490591749548912, 0.6986576318740845, -3.0503792762756348, 0.26431146264076233, -0.2018297016620636, 2.6559600830078125, 2.5312788486480713, 0.9335903525352478, -0.23730036616325378, 0.09817250072956085, 1.9470397233963013, -0.7624856233596802, 0.20707549154758453, -0.5039278864860535, 0.08326081931591034, 2.7130753993988037, 0.5222756862640381, 0.2398957461118698], [-0.008178072050213814, 0.026072293519973755, -0.01827392540872097, 0.01240281667560339, 0.04821927100419998, -0.03796028718352318, -0.04161433130502701, 0.049314845353364944, 0.01862075924873352, -0.030777398496866226, 0.07731179893016815, -0.05750472843647003, 0.03806747496128082, -0.009007282555103302, -0.03307505324482918, -0.0631059929728508, -0.0009460141882300377, -0.04939756169915199, 0.08349863439798355, 0.04778715968132019, -0.037882208824157715, 0.05382440239191055, 0.0373067706823349, -0.08170545101165771, 0.03923514112830162, -0.040606673806905746, 0.0634176954627037, -0.04391298443078995, -0.07737187296152115, -0.07801823318004608, -0.061915867030620575, -0.08369243890047073, 0.04969431459903717, -0.04158751666545868, 0.06271938979625702, 0.0285768061876297, -0.051172684878110886, -0.009070699103176594, -0.07939454913139343, -0.07959046959877014, -0.0600699856877327, 0.032710641622543335, 0.06746646016836166, -0.0650971457362175, 0.048417918384075165, -0.03033476136624813, -0.045453235507011414, 0.03253684937953949, 0.009449546225368977, 0.01599448174238205, 0.03182971477508545, -0.030417274683713913, -0.011251196265220642, 0.07233328372240067, -0.04602336883544922, -0.08372092992067337, 0.029665064066648483, 0.02345469407737255, -0.04967108368873596, 0.05045130476355553, 0.07465141266584396, 0.024367831647396088, -0.046324223279953, 0.058101169764995575, -0.07571014016866684, 0.058756619691848755, -0.02714809775352478, -0.04624949395656586, 0.08761642873287201, -0.060621216893196106, -0.07160745561122894, -0.058032721281051636, -0.034245893359184265, -0.054580677300691605, 0.06224581599235535, 0.07788259536027908, -0.0625518336892128, 0.0680641159415245, -0.047235727310180664, 0.05523761734366417, -0.07157298922538757, 0.0569286122918129, -0.0356127992272377, -0.007442005909979343, -0.06605511903762817, -0.03128552809357643, -0.048863042145967484, -0.044634945690631866, -0.06475996226072311, -0.0063013858161866665, 0.07331212610006332, 0.08145632594823837, 0.05068245902657509, 0.0018054591491818428, 0.05963138863444328, 0.05184561759233475, -0.08025713264942169, 0.07310806959867477, 0.0656386986374855, 0.006643723696470261, 0.0004204990982543677, -0.040865592658519745, 0.004564217291772366, -0.08366190642118454, 0.02322554774582386, -0.034765586256980896, 0.03231379762291908, -0.05181189253926277, -0.08476337045431137, 0.020032260566949844, 0.0037007671780884266, -0.07515665143728256, -0.08155644685029984, 0.011910151690244675, -0.04781336337327957, 0.026845945045351982, 0.01854429766535759, -0.08533564954996109, -0.0595252588391304, 0.07052947580814362, 0.05142776295542717, -0.014663483016192913, -0.07421812415122986, 0.003621094860136509, -0.07166561484336853, 0.05078809708356857, -0.0425645112991333, 0.062201984226703644], [0.0165812149643898, -0.01271406002342701, 0.03895024210214615, -0.009477993473410606, -0.0006445953622460365, 0.004821700043976307, 0.04543016105890274, -0.059862811118364334, 0.022219132632017136, 0.009136010892689228, 0.06011965498328209, -0.040575359016656876, -0.0072106970474123955, -0.060192808508872986, -0.05864584445953369, -0.041797492653131485, -0.07368811219930649, -0.06493909657001495, 0.048707928508520126, 0.07331663370132446, 0.004339494742453098, -0.06244987994432449, 0.06653609871864319, 0.07436498254537582, 0.0647316575050354, 0.0688946396112442, 0.05160663649439812, 0.08541211485862732, -0.036496877670288086, 0.06498084217309952, 0.05718377232551575, -0.00046028196811676025, 0.02063794806599617, -0.062759168446064, -0.062210969626903534, -0.01834760047495365, -0.0069001708179712296, -0.028478309512138367, -0.07162324339151382, -0.03888380900025368, -0.02631605975329876, -0.05057375878095627, -0.018222326412796974, 0.03673579543828964, -0.04174351319670677, 0.03923485800623894, 0.05180611461400986, 0.02404438704252243, 0.026398204267024994, 0.03864534944295883, -0.08266118913888931, -0.061079997569322586, 0.06415334343910217, -0.004457133822143078, -0.01907038688659668, 0.023478470742702484, -0.06534980237483978, 0.052501097321510315, 0.07160906493663788, -0.06411359459161758, -0.07988552004098892, -0.07965791970491409, -0.08327725529670715, -0.003361503593623638, 0.013508131727576256, -0.03268466144800186, -0.018990779295563698, -0.08833156526088715, -0.005844577215611935, 0.010148866102099419, -0.04229658842086792, 0.06475251913070679, -0.02836456708610058, -0.03580409288406372, -0.07342815399169922, -0.02838006429374218, 0.05870736017823219, 0.02739134430885315, -0.01525506004691124, -0.028531160205602646, 0.03768836334347725, -0.03356117755174637, -0.017968352884054184, -0.04662368446588516, -0.030255092307925224, -0.01848347671329975, -0.03996364399790764, 0.05061376094818115, 0.0027765289414674044, -0.015476053580641747, 0.053092047572135925, -0.009437174536287785, -0.05350642278790474, -0.0012033978709951043, -0.013263912871479988, -0.018580300733447075, -0.07920342683792114, 0.013903697021305561, 0.08724148571491241, -0.041369397193193436, 0.05856112390756607, -0.07220909744501114, 0.07673545181751251, 0.02672809734940529, -0.029862329363822937, -0.04592928662896156, -0.022069154307246208, 0.047658056020736694, -0.016428178176283836, -0.04376308247447014, -0.04965244233608246, 0.03429741784930229, 0.00519763957709074, 0.06545794010162354, -0.0517246350646019, -0.020483504980802536, -0.031090022996068, -0.038738422095775604, -0.07595003396272659, -0.032919447869062424, 0.0662059411406517, -0.04052812606096268, 0.07191289961338043, -0.0776396095752716, -0.07327614724636078, -0.039212290197610855, 0.02161514386534691, -0.060830697417259216], [1.2588590383529663, -1.5964834690093994, -2.8336501121520996, -2.6424243450164795, -2.4923229217529297, -2.519634962081909, -2.2038462162017822, 1.1609381437301636, -0.7473229169845581, 1.2677149772644043, 1.1482666730880737, 1.1524053812026978, -1.837813377380371, 1.2466360330581665, 1.0040510892868042, -1.8278180360794067, -1.8305902481079102, 1.2362816333770752, -2.4805853366851807, -2.5902299880981445, -2.311528205871582, -0.791492760181427, 1.29929780960083, 1.2634910345077515, 1.2769259214401245, 0.9213621616363525, 1.087598443031311, -1.6849600076675415, 1.2150039672851562, 1.3636035919189453, 0.9930022358894348, 1.1255898475646973, -2.0986571311950684, 1.2683559656143188, -2.1687567234039307, 1.3886141777038574, 1.3523578643798828, -1.8633793592453003, -1.6015985012054443, 1.159130573272705, 1.3163563013076782, -1.3815951347351074, -0.911990761756897, 1.4245764017105103, -1.627579689025879, -2.2615861892700195, -0.9685452580451965, 1.1147955656051636, -1.180546522140503, 1.1401647329330444, 1.2501671314239502, -2.6507115364074707, 1.11613130569458, -1.7367284297943115, -1.4458340406417847, 1.3196576833724976, -0.5086818933486938, 1.3077905178070068, -0.25907188653945923, -2.098167657852173, 0.8573666214942932, -2.5931951999664307, 1.2875536680221558, -2.2086174488067627, 1.220518708229065, 1.2012507915496826, 1.2828497886657715, 0.05494506657123566, -2.3665008544921875, 1.3203890323638916, 1.1189442873001099, -1.827527403831482, 1.0532240867614746, 1.3696787357330322, -0.06510226428508759, 1.0934627056121826, 1.4337433576583862, -1.5159071683883667, 1.4005314111709595, 0.056128062307834625, 1.3253918886184692, -1.9025546312332153, 1.000038504600525, 0.11192243546247482, 1.223912239074707, 1.3025506734848022, -1.7300862073898315, -0.41348451375961304, -2.702000379562378, -1.7628551721572876, 1.193495512008667, -1.5131686925888062, 1.0374943017959595, -0.4069805443286896, 1.177091360092163, 0.852236807346344, 1.2784725427627563, -2.5707647800445557, 1.0839896202087402, 1.3217804431915283, 1.2660496234893799, 0.058287110179662704, -2.0383217334747314, -1.7630575895309448, -1.0774264335632324, 1.2613669633865356, -2.6015398502349854, 0.9905327558517456, 0.0016275321831926703, 1.2963504791259766, -1.407699465751648, 1.369426965713501, 1.0282394886016846, -1.818637490272522, 0.9865900278091431, -2.3842899799346924, -2.199753999710083, 1.2960901260375977, -1.147961974143982, 1.256704568862915, -1.3146713972091675, 1.2932990789413452, -1.3446332216262817, 1.113095998764038, -1.255913496017456, -2.5139272212982178, 1.2498631477355957, -2.1619927883148193], [1.431387186050415, -1.7711063623428345, -2.930983304977417, -2.687133312225342, -2.51621675491333, -2.552884817123413, -2.1928279399871826, 1.134265422821045, -0.7668534517288208, 1.414547324180603, 1.2946029901504517, 1.1435297727584839, -2.1100504398345947, 1.3763253688812256, 0.9935562610626221, -1.787802815437317, -1.8823059797286987, 1.5097813606262207, -2.6037330627441406, -2.788351535797119, -2.356928586959839, -0.7006280422210693, 1.2519465684890747, 1.2864748239517212, 1.4360257387161255, 0.8568611145019531, 1.1166988611221313, -1.6761986017227173, 1.3912773132324219, 1.4892510175704956, 1.1643813848495483, 1.3231589794158936, -2.0389957427978516, 1.4707980155944824, -2.4584462642669678, 1.506327748298645, 1.3480279445648193, -1.8174103498458862, -1.502638339996338, 1.263741135597229, 1.3560861349105835, -1.5057212114334106, -0.7482637763023376, 1.4737523794174194, -1.7139424085617065, -2.280219078063965, -0.9999633431434631, 1.2954978942871094, -1.1857560873031616, 1.2023775577545166, 1.3504116535186768, -2.7595338821411133, 1.1657402515411377, -1.7900546789169312, -1.4247404336929321, 1.2990965843200684, -0.47903287410736084, 1.4757519960403442, -0.2917192578315735, -2.009906530380249, 1.0402499437332153, -2.566563606262207, 1.264593243598938, -2.1361215114593506, 1.3634921312332153, 1.3844184875488281, 1.4257534742355347, 0.050369419157505035, -2.263188600540161, 1.35642409324646, 1.107248306274414, -1.8447411060333252, 1.108142375946045, 1.4139167070388794, -0.045298632234334946, 1.2246793508529663, 1.2767643928527832, -1.529158592224121, 1.5244970321655273, -0.06104486063122749, 1.4408204555511475, -1.7572070360183716, 1.0738422870635986, -0.06929492950439453, 1.4544281959533691, 1.373146414756775, -1.6777957677841187, -0.3343944251537323, -2.779845714569092, -2.065742254257202, 1.3017386198043823, -1.376942753791809, 1.1925419569015503, -0.2939811646938324, 1.2491419315338135, 0.8225467205047607, 1.4207500219345093, -2.5630710124969482, 1.0424222946166992, 1.2560265064239502, 1.1847175359725952, 0.05732693150639534, -2.002840042114258, -1.733248233795166, -1.0605144500732422, 1.3678072690963745, -2.5304222106933594, 1.0072482824325562, 0.05524905025959015, 1.5131675004959106, -1.5213953256607056, 1.350487470626831, 1.0493276119232178, -1.7400895357131958, 1.1369962692260742, -2.2662301063537598, -2.19258451461792, 1.3917169570922852, -1.132768154144287, 1.381168246269226, -1.1995410919189453, 1.3005850315093994, -1.2982345819473267, 1.2061768770217896, -1.1721888780593872, -2.4541015625, 1.5128417015075684, -2.170048475265503], [1.3062491416931152, -1.7535455226898193, -2.9061245918273926, -2.673532485961914, -2.456575870513916, -2.608783006668091, -2.3091378211975098, 1.1248077154159546, -0.840412437915802, 1.3905775547027588, 1.2868534326553345, 1.2587307691574097, -2.080930471420288, 